900 100
आहे -0.5626425 -0.838679 0.29517564 0.98239064 0.8100401 0.33193097 0.45409602 0.018550286 -0.29130235 0.032987088 -0.5177368 0.9404194 0.12950364 0.24723093 1.0468872 -0.89685446 0.092813626 -0.24716936 -0.5707567 -0.7919939 -0.8529467 0.5766034 1.1850394 0.7869134 0.37273398 0.24652436 -0.08507181 0.9801902 0.054588087 1.1160667 0.3203415 0.089208834 -0.23038712 -0.7667979 0.65734303 0.03307078 0.37970498 0.19060682 -0.34744912 -0.22489223 -0.9084557 -0.3321004 0.33922514 -0.29152513 0.3624602 -0.1323158 0.009805207 -0.3464575 0.25719866 0.97391057 0.22590426 -0.451845 -1.0585008 0.39611247 1.0460703 -0.29761314 -1.0231698 0.5552257 -0.22202311 0.13738522 -0.6551295 -0.443441 0.17003208 -0.48708415 -0.3169371 0.9661596 -0.41881323 1.3107904 0.10803567 0.66904855 0.12666145 -0.41859108 -0.6711992 1.0659094 0.1632783 -0.0595567 0.3830743 -0.054207448 -0.6799954 -0.25696385 0.25628063 -0.37104952 -0.3256881 0.24970156 1.0826156 -0.9296636 -0.71754855 0.81639785 0.5037084 0.97652197 -0.007076339 -0.13092883 0.11690826 -1.0287695 0.41887385 -0.5725431 -0.044806253 0.43498433 0.45685056 -0.68343765
या -0.124747 0.16162194 -0.5274495 -0.5145603 0.48752537 -0.39323768 0.59019005 0.67347205 -0.7673587 -0.62677145 -0.4809541 -0.74299043 0.42542094 0.572823 0.07411465 -0.0885047 0.49433032 -0.26622874 0.094911486 0.18858162 -0.76075065 -0.18803975 0.50680655 -1.1995746 -0.153696 -0.6767019 -0.705491 0.57818604 0.6380325 -0.17677891 0.41202095 -0.5113387 0.85531753 -0.7681104 -0.42270562 0.26601446 -1.0113174 -0.5191204 -0.2079358 -1.347578 -0.006742672 -0.20539184 -0.1224031 -0.31483456 0.015161669 0.7544331 -0.4829226 -0.60168767 -0.58494097 0.79847044 0.515452 -0.71695167 -0.6403794 -0.09423862 -0.19635849 -0.4732629 -0.22504048 -0.52149785 0.5113097 0.28383046 0.85854703 -0.692127 -0.67771477 -0.8455706 -0.5278446 0.27690017 -0.40080532 -0.917683 -0.18226631 1.0489404 -0.5159023 -0.6556504 -0.36332762 0.71203446 -0.49019054 0.029980542 0.28203723 0.4354336 -1.0530602 -0.32598433 0.16627255 1.0622506 0.932017 -1.1515567 0.08252117 1.1335135 -0.8394318 -0.7436293 -0.43560848 0.21135207 0.7499997 1.1310614 0.20323738 0.54860204 1.0582991 -0.017176928 -0.23054321 -0.32436237 0.7054772 0.7561133
नाही -0.27272475 -0.33394197 -0.041572575 -0.44232756 0.14062627 -0.7330534 -0.4208708 -0.26347703 -0.65696615 -0.8162197 -0.51300627 -0.4714552 -0.3420659 -0.30077684 0.79368013 -0.12469716 0.120343685 0.16788632 -0.4917041 -0.625822 -0.57369924 0.67314583 -0.6240313 -0.050091416 0.4898521 -0.03558836 -0.82561135 -0.045872513 -0.80570686 -0.370422 0.32595375 0.22274064 -0.72483027 -0.01988859 0.13630743 0.7235164 -0.3579656 0.6990323 0.2393832 0.62166166 -0.87230724 -0.041207112 -0.08772099 -0.683306 0.51534694 -0.1685461 0.5021279 -0.031689122 0.54649174 0.92757726 -0.30590302 0.2792454 0.27295816 -0.0933799 -0.39414632 0.086817786 0.21558857 -0.48287746 0.59946185 -0.023367845 0.5935906 -0.40056968 0.15059188 0.21397616 -0.24704579 0.33492583 0.101577714 -0.22575079 0.9662973 -0.027765041 -0.32701164 0.9735511 -0.35755652 0.007497302 0.54551744 0.4508323 -0.045572475 0.48395228 0.697483 0.6510118 0.37868008 0.56504697 -0.6782641 -0.28126168 -0.26904464 -0.39123052 0.707392 0.39008293 0.8665249 0.37195385 0.6699716 -0.23902021 0.27696282 -0.214237 -0.09525951 0.5069589 0.18357049 0.31612584 -0.2655476 0.6322172
आणि -0.33484364 0.25863788 -0.065654755 0.6208208 0.21067204 -0.6705838 -0.4650929 0.030959517 -0.34949023 0.34398815 -0.41343346 -0.28919864 -0.5892936 0.31058714 -0.75857353 -0.11116194 0.37775669 -0.1724903 0.6526085 -0.78150755 -0.7966842 -0.5317507 -0.9641316 0.6752024 1.0002626 -0.45196763 -0.31174418 -0.68302757 -0.6647701 -0.16375673 -0.6492999 0.00028034401 -0.6292984 0.330656 0.38600275 0.48708573 -0.4758012 -0.046901997 -0.31614563 -0.16636957 -0.12309545 0.15873061 0.40083525 -0.55139476 0.502415 0.98933196 -0.29387608 0.3731471 -0.67226774 0.50041884 -0.14437751 0.52375734 0.09954311 0.45573688 -0.545707 0.35958886 -0.5118512 -0.524637 0.62471414 0.056715164 -0.21208654 -0.57924354 0.09643614 -0.24943803 -0.5549232 0.201198 -0.011898904 -0.383774 -0.22903405 -0.11993809 0.20395072 0.97280955 0.46962857 0.46217978 -1.1058443 -0.16369162 0.13706829 0.0900895 0.060023863 -0.09117702 0.3172194 -0.013337314 0.55691856 0.24767634 0.23771115 -0.69653517 -0.9667008 0.22577503 -0.36307967 -0.320493 0.79408216 0.38832802 0.540521 -0.0019209468 -1.1210766 0.72209674 -0.48737627 -0.5151344 0.42547613 -0.16170034
व -0.65356696 0.49381226 -0.37178826 -0.8079481 -0.22075108 0.7761457 -0.25350162 0.5668222 -0.16041262 0.46025103 -0.5552541 -0.076519646 -0.1670719 -0.43445826 -0.29008034 0.017965782 -0.14787197 -0.4553315 0.89274013 -0.869961 -0.6678745 -0.6436766 -0.056057435 0.0437066 0.5048154 -0.6991809 -0.68015236 -0.7789849 -0.4576873 -0.57207865 -0.19670592 0.08883729 -0.9455609 -0.5876321 -0.16891068 0.73169345 -0.05619173 0.9688317 -0.52641237 0.24258776 0.2135179 0.5866127 -0.45914742 -0.43465546 0.38844663 0.3479324 -0.15671644 0.6618819 0.1340892 -0.16205677 0.47225028 0.585813 -0.7703015 0.49775568 -0.4383092 -0.26908052 0.08991803 0.499499 0.52792424 -0.14687304 0.8779386 -0.2887929 -0.4579834 -0.30145824 -0.3609622 -0.6410145 -0.12517342 0.8146806 0.8428617 -0.38430637 0.5651873 -0.014275029 0.64822024 0.22029427 -0.44528627 -0.33790854 -0.30431005 -0.2936996 -0.4687445 0.29487073 0.46485636 -0.1486118 0.41379073 0.2386252 -0.09144931 0.4739553 0.22340286 0.4292856 -0.11966373 -0.6711998 -0.34083724 -0.081677176 0.2869162 -0.16052252 -0.028614154 0.3125586 -0.46508482 -0.55295056 0.047940966 -0.28319204
हे 0.06049808 -0.20934135 -0.3754548 0.5286967 -0.92160964 0.02574197 0.25046194 -0.76575893 0.17460585 0.53720224 -0.21027519 -0.7341804 -0.3497195 -0.006788706 0.37485862 -0.7661554 -0.36956045 -0.5154996 0.09960767 0.4278596 -0.031966045 -0.5972572 0.49410254 0.0015839149 0.43769637 -0.30654946 0.01706331 0.39478686 -0.42988315 -0.23952122 -0.56266505 -0.07856261 -0.9750575 -0.26281098 0.09218798 0.40206826 0.2461863 0.92286325 -0.26617917 0.90514517 -0.53311735 0.27373645 0.8918653 -0.4520864 -0.00636848 -0.17188549 -0.55141723 0.21756475 0.21827279 -0.37361172 -0.78108287 0.31889185 0.19742563 0.30971316 0.06941568 0.8416341 -0.62437123 -0.35267434 0.07410725 0.05352216 0.31173545 -0.5648541 -0.09123762 -0.10679923 0.6494965 0.09400717 -0.024848873 0.017933263 -0.058346402 -0.21015179 0.38491228 0.75247854 -0.110966064 0.1354133 -0.35885823 -0.028309109 -0.15921769 0.14195818 0.21452388 0.13134617 0.107535556 0.5343408 -0.86589414 0.03478051 -0.03667021 0.49639198 -0.12533507 -0.16921428 -0.14977303 0.19907159 0.51322675 -0.32633153 0.23667426 -0.4490287 0.399447 0.31393942 0.10921432 0.60626686 0.23355004 0.26017353
एक -0.86084133 -0.31653807 -0.20285694 -0.14051044 -0.52118814 -0.31972542 0.84613407 0.13268074 0.7348295 0.31112748 -0.4833416 -0.48787454 -0.45595667 -0.5739568 0.5803241 0.13305897 -0.05576389 -0.44334298 0.06655779 0.28377473 -0.4198192 -0.2733044 0.15727589 0.51476324 -0.3157629 -0.37709966 0.7230935 0.20782766 0.24184 0.51209944 -0.6873796 -0.39712468 0.05272298 -0.4016689 0.5726044 0.19918953 0.60628563 -0.2897016 -0.30366805 0.82952195 0.024471344 0.19887835 0.5533753 0.09489696 -0.37486285 -0.29194334 -0.82739615 -0.053456772 0.27878523 0.7263648 -0.5616771 -0.32068056 0.44240755 0.16576675 0.1147619 0.5516227 -0.5987467 0.44109368 -0.34401864 0.36511415 0.6990294 -0.0027994376 0.62439233 -0.61136436 0.03750221 0.0301828 -0.22867258 -0.27453706 -0.2358271 0.01477114 0.84022784 0.3678315 -0.46735373 0.348992 0.41436657 0.21619447 0.24674302 0.58054316 -0.48144817 -0.29470113 0.6140887 0.4778994 -0.7397751 0.23557834 -0.015662571 -0.8317279 0.8712462 -0.8809678 0.20799696 0.77810913 -0.25712526 0.11228618 -0.65629196 -0.4152051 -0.9786199 -0.030789364 -0.2692533 -0.3968651 -0.5532864 -0.2666622
तर -0.3123527 -0.32849982 0.78150177 0.6884308 -0.04935886 0.15432642 0.6291645 0.35071406 0.1445756 -0.35109866 0.18382043 -0.43093565 -0.50444376 -0.12324145 0.402423 0.42942613 0.054126196 0.47396174 -0.32590273 -0.6857277 -0.72321606 0.22241616 0.3006141 -0.72641057 -0.13403969 0.67565227 0.13092738 -0.34885848 0.31294802 0.061147183 -0.4601709 0.70731753 -0.62846863 0.42953092 -0.28806913 0.38326976 0.41118872 0.7419511 0.9728297 -0.3624715 -1.0465091 0.62298125 0.020728845 -0.22218762 -0.2852574 0.18316917 -0.0957873 -0.14118415 0.7797285 -0.2371719 0.23991941 0.20413007 0.5472695 0.34888345 -0.21041918 0.96374947 0.09220697 -0.5195746 0.286691 -0.5710025 0.15830217 -0.46987993 0.2921101 0.8618173 -0.2898743 0.6471218 0.3962391 -0.55444753 0.8552659 -0.42895833 0.09289787 0.7781123 -0.24288014 0.5312231 0.19786125 0.52997684 0.1834963 0.513727 0.20360011 0.61505544 -0.29469752 0.21913704 -0.11239439 0.32251775 -0.17006521 0.4599528 0.23672941 -0.22935301 -0.19123793 0.52809274 0.16933826 -0.64983714 -0.4573542 0.3611482 0.089304104 0.20150791 -0.0809031 -0.20344011 -0.61073786 0.4003892
असे 0.32713202 0.3995228 -0.42245442 0.592568 0.50788695 0.3879741 0.54199755 0.23343547 -0.50473756 0.10686893 -0.24054207 0.84483707 0.3309855 0.101432994 0.9227214 0.0705988 0.5268878 -0.10375534 0.7204143 0.031822883 -0.14273211 -0.35853177 0.027640263 0.6826046 -0.3410287 0.35792965 -0.6853727 -0.0013101079 -0.40029848 0.32269427 -0.3861562 1.0183655 0.069809884 0.0077538453 -0.007959602 0.39795178 0.28921804 0.1201901 0.009960025 -0.038313627 0.32381552 0.1895811 0.3230353 -0.45309952 -0.029440843 -0.59479016 0.07250374 0.49194497 0.18318872 -0.34414884 0.23190725 -0.3616259 -0.46077353 0.3869748 -0.53902197 0.07041094 0.8726654 0.81023335 0.73101896 0.4174657 0.28730145 -0.47368705 0.739104 0.20180841 -0.35813802 -0.21646181 -0.43280634 -0.15992168 0.41004235 -0.34979174 0.06721042 -0.22703987 0.009820783 -0.40834942 0.021883829 0.12004455 0.36619717 -0.39490306 -0.23243356 -0.15367593 -0.21133113 0.26343307 0.31630486 0.25791523 0.4358642 0.14905019 0.13905616 0.77673775 -0.58593917 0.19505556 -0.94878256 0.15328763 0.2700831 0.2545047 -0.8763059 0.15431161 -0.2968955 0.2574688 0.5877044 0.39515698
काही 0.5674827 -0.5059874 -0.37343457 -0.34751284 -0.76133686 -0.007382572 -0.299125 0.515493 -0.6320036 -0.72686553 0.7381582 -0.39766237 0.22523949 0.44366872 0.23954259 0.21058275 -0.17272551 0.9951185 -0.4109785 -0.77162254 -0.3442332 -0.67952055 0.86796004 0.6353548 -0.48295546 0.38399473 0.19941789 -0.5558223 -0.571848 0.20279503 -0.13525276 1.0464971 -0.4430079 -0.41715476 -0.65856355 -0.0936714 -0.10244449 0.24376804 -0.5306544 0.27072763 0.7557244 -0.223522 -0.45810473 0.5388576 0.3311133 -0.9437183 -0.6787208 -0.0965693 0.5348093 0.5744505 -0.46431214 -0.53337663 0.6736381 -0.27401632 -0.54232657 0.7717423 0.18651433 -0.46644777 -0.04713098 -0.11199161 -0.058899913 -0.32055572 -0.43455884 -0.47078103 -0.22469343 0.29377002 0.56918794 -0.4516972 -0.19477129 -0.45378768 -0.5459027 0.4032399 -0.7878853 0.80953014 -1.1631783 -0.90028864 0.22253719 -0.014685626 -0.34076852 0.5865435 -0.63894963 -0.089436024 -0.2711027 -0.020392753 0.43345076 0.34392962 0.0029257045 -0.2428519 -0.070960455 0.69687104 -0.86645746 -0.2610278 0.47402328 0.30644634 0.29815575 -0.4865037 -0.26727957 -0.21104468 0.23430422 0.07705272
आहेत 0.44743317 0.053030506 0.54730266 -0.25459418 -0.4037916 -0.21357158 0.49929792 0.02993618 0.5917164 -0.15717322 0.20787562 -0.27092922 0.33025858 -0.42476597 0.16457692 -0.12129183 0.601043 -0.059415072 -0.48219678 0.053259917 -0.038641773 -0.4573 -0.2353851 -0.5783674 0.4087767 0.26759964 0.35501865 -0.56861883 0.59199077 -0.26594627 0.31534627 -0.20833486 0.27177987 -0.004781676 -0.4680785 -0.053994555 -0.42460653 0.40297174 -0.39436468 -0.62179756 0.24702892 -0.09657046 0.45422837 0.12355786 0.037623122 -0.63311887 -0.24106647 -0.62434655 0.6957169 0.54144293 0.36223796 -0.41437492 0.6009237 0.36395526 -0.45241287 0.90550566 0.041143507 -0.074831985 -0.31533998 -0.16264977 0.14996223 -0.31025353 0.013245966 -0.20359427 -0.32463026 0.11978739 0.32500008 0.20012915 -0.5024534 0.5519856 0.02904536 -0.49587843 -0.2056607 0.18129556 0.04538962 -0.5680655 0.4402435 0.25809065 -0.64860946 -0.28806862 0.14275725 -0.4046595 -0.07123753 0.10880967 0.25149855 0.68016344 -0.66498244 -0.46343908 -0.39672363 -0.08023344 -0.18483593 0.7172927 0.36274898 0.1581221 -0.44304085 0.2556538 -0.6089289 0.46123335 0.13202327 -0.21357311
केली -0.90459096 -0.2167645 0.064912595 0.53032756 0.3692467 0.2506788 -0.49558547 0.011570114 0.5769093 -0.4075595 0.03842524 0.6870231 0.12913786 0.58511835 0.0786286 -0.5803724 -0.54197246 0.66955703 0.1757039 -0.2738009 0.34628737 -0.33950126 -0.42505294 -0.31657913 0.22592539 0.29251882 -0.9733976 0.05904538 -0.6720756 0.36136812 -0.031960152 -0.1784734 -0.25357044 0.07753379 -0.011294696 0.34053057 0.057238635 -0.31830633 -0.123896636 -0.094127044 0.5233233 -0.29433462 -0.23948593 -0.014892135 -0.21791 0.64634633 0.39091337 0.702077 -0.0977419 0.35218415 0.47640306 0.32299158 -0.68442374 0.24414426 0.6673095 -0.64839154 -0.07747053 -0.15631013 -0.14799528 0.17199655 -0.19109909 0.23526563 -0.18306316 -0.103137165 0.21988161 0.058051366 0.24919106 -0.25070077 -0.29008213 0.52900904 -0.0020592539 -0.23563392 0.3918234 -0.26538467 -0.16367657 0.3240275 -0.07485711 -0.6105051 0.0014895443 -0.38850296 -0.043259554 0.4248001 -0.19573273 0.64196473 0.13718191 -0.94978166 -0.07359895 0.67845863 -0.35818487 0.05117259 0.08260896 -0.03260291 -0.31248054 0.26720202 -0.09916548 -0.3092103 0.19349606 0.34467655 0.011391662 0.055857364
ती 0.45808166 -0.30836663 -0.03564723 -0.43784297 -0.92490774 -0.22056825 -0.586752 0.3541886 -0.5547778 -0.14955705 -0.20599853 -0.31754982 0.6120525 -0.11491321 0.39889103 -0.62953687 -0.05178502 0.18849337 0.2768138 0.274852 -0.08854396 -0.14160083 -0.73967755 -0.9312372 0.6323177 -0.29533318 -0.44963497 -0.7096929 -0.8346958 -0.34485272 -0.19636133 0.2774755 -0.6260252 -0.40703532 -0.39404383 0.47442153 -0.22483416 0.54840976 0.4575178 -0.3396437 0.14659144 0.2589917 -0.25354278 -0.50573045 0.08399033 -0.2734988 0.46267888 -0.14094101 0.2238057 0.19759606 -0.21605553 -0.07237717 -0.004041585 -0.2049071 -0.5869843 0.82491696 0.17829344 0.1803813 0.5584984 0.14107326 -0.01941979 -0.4250955 -0.22041474 -0.47179562 -0.34524179 -0.48597276 0.330278 -0.41870648 -0.13297237 0.34963417 -0.7071908 0.41316572 0.5624572 -0.7372733 0.27750114 0.5461185 -0.1756013 0.27360252 0.5558011 0.40781337 -0.23874845 -0.12725878 -0.31828058 -0.2791892 0.28618953 0.13004252 0.52903366 0.43262926 0.6812693 -0.48435667 -0.47570258 -0.49428645 -0.11149322 -0.10886236 -0.7392104 -0.04488553 0.19847523 -0.6169523 0.040667243 0.12892449
अशा 0.525827 0.16343479 -0.025868421 -0.06518812 0.21303453 0.2863554 0.45132494 -0.072973154 -0.056807514 0.05075739 -0.25587344 -0.29098037 0.38298965 0.3296168 -0.20304225 0.40499523 0.5904118 -0.20155191 0.20116135 0.44716632 -0.34259838 0.22037372 0.5753304 -0.24846454 -0.00994081 0.28283954 0.1306272 -0.5982779 0.23516865 -0.28891224 -0.328598 0.29456046 0.16565302 -0.17220637 0.30765343 0.18559664 -0.37352723 -0.1664454 -0.25647926 -0.4355752 0.63626134 -0.13245857 0.6575208 0.28836507 0.22230601 0.21944207 -0.6606151 0.25087908 -0.33731905 -0.18943687 0.01361171 -0.11015752 0.14908424 -0.36381948 -0.14325945 0.056839947 0.43309814 0.2743454 -0.065537766 0.27947706 0.34029245 0.13141817 0.39244348 -0.16257362 0.06905519 -0.04981762 -0.25520852 -0.007297596 0.115296245 -0.06933647 -0.41598672 -0.27858844 0.47261944 0.24375403 -0.7300862 -0.1258106 0.2622379 0.24439837 -0.11524775 0.8686623 0.037471723 -0.41794387 0.38602597 -0.0066816565 -0.3136439 0.7150939 -0.2858506 -0.36009365 -0.5654236 0.4179545 -0.77791053 0.56868875 0.19504637 0.3029709 0.29964447 -0.04429937 0.056515317 0.07021013 0.16542464 0.2541847
यांनी -0.2912812 0.022567164 -0.030976797 -0.126408 -0.2973924 0.06332997 0.9931409 0.1349112 0.37653005 0.06755532 -0.14626902 0.5662293 -0.32727447 -0.1582044 0.50413144 -0.7488992 0.06894977 0.7109662 0.27502084 -0.46805504 0.6861346 -0.16676794 -0.1344794 -0.02768004 0.5770544 0.43618345 -0.2574899 -0.1973697 -0.32620534 0.72361284 0.7073613 0.37077388 0.1804645 -0.1345387 0.44514224 -0.10532374 0.098300174 -0.13730757 -0.42852393 0.123980336 -0.72832024 0.37327042 0.5203819 -0.18429393 0.18117958 -0.4247931 0.2327324 0.7075687 0.24775885 -0.098914094 0.5618929 -0.08185094 0.19757646 0.3284597 -0.15892993 -0.119582705 -0.05791778 0.15140498 -0.208703 0.098273925 -0.3443568 0.14901108 0.022219608 0.040597152 -0.2112382 0.38123325 0.1544873 -0.11971663 -0.013630124 0.065389894 0.41330025 0.63956124 0.18551865 0.29125497 0.393379 -0.69624823 0.25897387 -0.458302 -0.41412964 -0.20148765 -0.12030957 -0.19316803 0.1341613 0.20300627 0.14784804 -0.09318952 -0.0008600108 0.85234886 -0.51419795 0.21371426 -0.053375445 0.19361368 0.2838685 0.38480031 -0.25600207 0.6594086 -0.19631383 0.32180467 0.104275696 0.45613423
त्यांनी 0.08679802 -0.48765358 -0.06055868 -0.52003205 0.5855894 -0.41310933 -0.29619488 0.03715904 -0.23320901 0.1492996 -0.35037082 -0.36761707 -0.1516657 -0.17095931 0.05341123 -0.38153964 -0.1651904 -0.33589727 -0.94299453 -0.07029484 -0.30824095 -0.03710281 0.42495748 0.6035973 -0.06031721 0.37678936 -0.5145062 0.6160384 0.29388812 -0.55297893 0.69735414 -0.29465497 0.29697424 -0.21190673 -0.5061162 0.00048558827 0.7416194 0.43433306 -0.090383105 0.52572757 0.28356808 -0.5243663 -0.5072818 -0.16738527 0.070062354 -0.6196194 0.6793887 -0.710486 -0.5054969 0.41072148 0.38553736 -0.23734246 0.72091305 0.45125613 0.3009261 -0.58782035 -0.56748605 -0.0013977408 -0.6052891 0.19100975 0.52862424 0.23219393 0.12162242 -0.36710763 0.22286318 0.1478349 -0.36424804 0.5068648 -0.35734338 -0.46251643 0.5706124 0.45434538 0.2824963 -0.1264659 0.5572771 0.12743025 0.6380948 0.40285847 -0.14421855 -0.65037936 -0.10213903 -0.27293003 -0.91547745 -0.45809144 -0.40016678 0.082944885 -0.39422065 0.16909987 0.45052725 0.5581808 -0.66769975 -0.08965109 0.47831917 0.17956834 -0.33666825 -0.62317955 -0.012189197 -0.17703307 0.04300078 -0.50307745
केले -0.14653623 -0.14211394 0.122872755 0.47847763 -0.65605825 0.45857558 0.1001783 -0.07911012 0.10499101 0.32622805 -0.15313978 0.057366952 0.17931286 0.17410748 0.18972391 -0.27215743 0.19056807 0.35941982 0.061303467 -0.503744 0.09836987 0.015821835 0.21310432 -0.2591042 -0.00394435 -0.050277278 0.18823846 0.4544786 0.21965902 0.13317575 0.6707862 0.6335091 -0.39366132 -0.13918273 0.08339974 -0.28592563 0.27771986 0.25529546 -0.23849691 -0.1537047 -0.17825088 0.0047207135 0.20301671 0.4897595 -0.19914375 -0.17705083 0.24636634 0.2998832 0.3865788 -0.5347891 -0.14723 0.27236465 -0.05171789 0.023633355 -0.1618283 -0.32873148 0.33130145 0.30249676 0.5474118 -0.5487879 -0.8227455 0.017831981 0.5481028 -0.03674919 0.07182452 0.14862531 0.08972923 0.56341493 0.21166655 -0.23751634 0.45110232 0.12612921 0.5361132 -0.1772678 0.29677197 0.32335538 0.021314962 0.16997255 -0.24562378 0.026191222 -0.5858581 -0.3147848 -0.6231147 0.23191825 0.12716438 0.11075189 0.54749495 0.24312355 -0.1630051 0.6323983 -0.5465327 0.40151837 -0.5183989 0.081557415 -0.3891872 0.5212165 0.43855438 -0.4405874 0.2843892 0.13341667
त्यामुळे 0.2182755 -0.2787249 0.37928793 0.39306775 0.12406005 0.37519422 0.45911697 0.14566141 0.21042407 -0.6634681 0.43235165 0.1857136 -0.4652529 0.5512125 -0.007878493 -0.33625215 -0.26308584 -0.23912461 0.12156578 0.30939606 0.0036529768 0.05961251 -0.38818866 -0.26029688 -0.19353373 -0.03656437 -0.39344817 -0.11591238 -0.58834404 0.43083605 -0.32163513 0.1939094 0.47541437 0.13512023 0.30385053 0.15833575 0.1832173 -0.016528014 -0.19474898 0.37783334 -0.3994931 0.18356577 -0.32838827 -0.148156 0.062494963 0.055095676 0.42962947 0.11496633 -0.13671204 -0.2995823 -0.19372497 -0.09623915 -0.55613244 -0.05267064 0.078953214 -0.2703037 0.21457277 0.44382814 0.39729142 0.15198074 0.24238367 -0.17351097 0.5908343 0.4307302 0.09557899 0.00924134 0.052976273 0.29579866 -0.2769489 -0.21621719 -0.2610922 0.085200734 -0.053249158 -0.10216536 -0.23191172 0.01645022 -0.10424957 -0.3073239 0.5143549 -0.35436302 -0.023751674 -0.26547775 0.196251 -0.33773887 -0.2214605 0.05516914 -0.76401114 0.4323551 0.39890993 -0.029095788 -0.36468527 0.077726796 -0.43294927 -0.002012781 -0.26721868 0.31879777 -0.38686356 -0.2623738 0.15707192 -0.46103975
झाली -0.1930883 -0.13162091 -0.078044765 -0.26406905 0.25902668 0.0743957 0.461053 0.186871 -0.63808125 -0.37963316 0.15684673 -0.22002222 -0.50735766 -0.08934665 0.35766608 -0.28991985 -0.46782985 -0.63175476 0.2883175 0.10544768 0.15838775 0.13709049 -0.48314902 0.07604708 0.2947205 0.25450093 -0.073916465 0.0801509 0.26741424 0.5664351 0.087201804 0.30914557 0.09183088 -0.13912173 0.2158239 -0.00679723 -0.16447437 -0.27722725 -0.07789487 -0.39903688 0.23353153 0.38559088 0.4977583 0.31051624 0.33709612 -0.29528397 -0.48716846 -0.5225742 -0.19865969 0.15384988 0.32082716 -0.06636989 -0.4574134 0.4461343 0.19279496 0.21873544 -0.07323413 0.38191903 0.39916745 -0.60405105 -0.53136045 0.13794425 -0.3051776 0.50711024 0.086739704 -0.13117354 0.4623191 0.046310484 -0.17350562 -0.40186107 -0.17447555 0.301342 0.31919804 0.4849784 -0.30674422 -0.2669271 -0.39400685 0.31377602 0.23671287 0.19260575 0.15816034 -0.10411369 0.5473955 -0.1491018 -0.32646286 0.4038142 -0.59059495 0.4109742 0.40511355 0.41552395 0.50280356 -0.5637298 0.06401123 -0.09510257 0.082080044 -0.20509139 -0.18848677 -0.055557463 0.32091117 0.12641758
पण 0.022708023 0.47316605 -0.020333579 0.0136417765 -0.41268632 -0.14388783 0.5949624 -0.058270067 0.37397283 -0.20507109 0.29325545 -0.2699425 0.078662805 0.05892947 0.10152067 0.5940676 -0.09694644 -0.0011502294 -0.15636869 0.4629035 0.2636117 -0.2782293 0.5349583 -0.1597153 0.21420498 -0.23603542 0.021654047 0.41290814 0.3041066 0.07378233 0.10647485 -0.28517026 -0.059184723 0.044463277 0.39507174 -0.24298348 0.5541299 0.21793467 0.15773886 0.0002380221 0.42214528 0.5487566 0.32067424 0.34768817 -0.14437863 0.17009962 -0.10774496 -0.27917063 0.42995232 -0.39246958 -0.12084528 0.21686263 0.10902836 -0.5514931 0.357004 0.16207404 0.17083335 0.31058306 -0.24368949 -0.007914631 0.04303769 0.44481778 0.09621621 0.25306615 0.38005155 0.12255603 0.17679645 -0.118461214 -0.17677441 -0.38501242 0.48487943 0.39158735 0.15869313 -0.09796735 0.098981924 0.19447346 0.18013771 -0.062254608 0.22648765 0.11781146 -0.28225017 0.15611213 -0.3462011 -0.308286 -0.21019694 -0.7104025 -0.047769796 -0.38527775 0.5549836 0.4798328 0.13220829 0.41430265 -0.612006 -0.062961675 -0.21796027 0.023300981 0.23010081 0.3071302 -0.21324201 -0.35859108
असा -0.5789703 0.045736235 -0.06994522 -0.4215942 0.44862545 -0.34568062 -0.38691396 -0.12284831 -0.19962806 -0.33829254 0.71773237 -0.17590621 -0.6511265 -0.2096259 0.084223725 -0.32510665 -0.15753081 0.027060332 -0.1634804 -0.6250029 0.7984338 -0.19812827 -0.030609787 -0.32503805 -0.31587917 0.11629249 -0.01246953 0.007393283 -0.5864016 -0.2942024 -0.119426735 0.24174707 0.24458079 -0.47599483 -0.454999 0.025530972 0.062620275 -0.016333215 0.0925141 0.33144906 -0.47639358 0.15881021 -0.32923996 0.11399807 0.23474042 0.2322729 0.052654758 -0.3131353 0.70495915 0.26035336 0.12706973 0.4562946 0.14756797 -0.051939145 0.12278016 0.13576925 0.0041743773 -0.16514575 -0.20446865 0.0072150207 0.3462348 -0.3862595 -0.17020352 0.61264706 -0.33459127 -0.31085938 0.4679684 0.046263978 -0.25125465 0.500945 0.1336145 0.12966524 0.21500678 -0.1479047 -0.43584403 0.48133686 0.31194273 -0.20524542 0.6518275 0.88333374 -0.0754004 0.09254137 -0.2654791 0.37910378 0.24528015 -0.4459411 -0.24236217 0.33877835 -0.42400822 -0.0052257706 0.48390058 0.14659142 -0.7320689 0.2311651 0.5174765 -0.4444509 0.5922477 0.67280596 0.31986687 0.029517882
होता -0.69022596 0.05752652 -0.19409306 -0.27806917 0.39599144 -0.44729432 -0.30823562 -0.48233372 0.15433492 0.4382416 0.61046696 0.5274633 -0.5733758 0.5758894 0.14250986 -0.5841141 -0.36316413 -0.2548434 0.33974242 0.050973505 -0.14323269 -0.41578194 0.2841079 -0.087615654 0.37290064 -0.28719386 -0.5075603 0.24705698 0.073602535 -0.5367089 -0.35208577 0.32821652 0.044451516 -0.33923873 -0.45488825 -0.07665526 -0.29539102 0.26515776 -0.37333307 0.69639057 0.21527149 0.1302122 -0.15329398 -0.15808329 0.4893695 -0.129496 0.5249562 -0.20229569 -0.38057637 -0.016831461 -0.17153062 -0.052472036 0.17799814 -0.59728235 -0.038109973 -0.31364113 0.26095733 -0.16418034 0.6265893 -0.35335752 0.52275866 -0.06100725 0.27474687 0.70710576 -0.47193137 0.04696428 0.10430272 0.50562453 0.41011387 0.4834879 0.20929115 0.16984382 0.5177293 -0.2704077 0.34333283 -0.1890885 0.14385638 -0.35778475 0.34155095 0.08940647 -0.35820732 -0.6498378 -0.33146384 0.13828301 0.4940734 0.060003366 -0.71449727 -0.37782302 -0.5331418 0.3266439 0.28475782 0.6301281 0.15379566 0.27036378 0.43714496 -0.37418404 0.16259727 0.120210946 0.30470523 0.45393974
होती -0.5338387 0.06106616 0.5332503 0.19212042 -0.19042885 -0.09256212 0.47422016 -0.1722963 0.071345456 0.41658905 -0.20512791 0.16936828 -0.2300045 0.23788013 -0.27476913 0.39229316 -0.22870931 -0.20501108 0.094739735 0.39440846 -0.20642723 0.17883314 -0.05456088 0.41047177 0.453527 0.37113032 -0.6212965 0.032741684 -0.32535064 -0.16493869 0.30475834 -0.2297803 0.36462465 0.39139104 0.6254544 -0.2017195 0.3611462 -0.02778753 0.15495297 0.5637014 0.47062677 0.09343716 -0.16241251 0.23724326 0.5878188 0.1431088 -0.17561796 -0.36843434 0.0010262029 0.158106 -0.021530228 0.10519388 -0.35286224 0.27382734 -0.076397575 0.730365 0.3283076 -0.17283703 0.130064 -0.374389 0.26415327 0.12666324 0.686422 0.39113867 -0.15149252 -0.40942758 -0.09535662 -0.1788214 -0.21043861 -0.29221824 0.074980915 0.6132747 0.3344758 -0.12468358 0.1041246 0.12378996 -0.608636 0.14759949 0.50794846 0.38192475 0.08128698 -0.28186172 -0.1926606 -0.43898296 -0.45078978 0.11245634 -0.6882933 0.479015 0.30212826 0.41497266 0.2798641 -0.17652212 -0.046940487 -0.6251653 -0.05516717 -0.07483414 -0.03666157 -0.26853895 0.15686335 0.314869
त्या -0.17674348 -0.31606084 -0.16500252 -0.15132329 0.4398293 -0.32463706 -0.4602678 0.29325017 0.14941792 0.1360659 -0.42439872 -0.64321554 0.3051536 0.12750994 0.036803428 0.2816524 0.6535817 -0.12500931 0.16558644 0.57512176 0.0009311463 -0.10269526 0.38968784 -0.027593445 -0.15277645 0.4121417 0.45823294 -0.17208499 0.64894015 -0.60396165 -0.5230307 -0.2882309 -0.68430537 -0.5182192 -0.42407346 -0.32178998 0.3110376 -0.425343 -0.20015973 0.24554244 0.40259886 -0.36317384 0.05224328 0.3292619 0.11566613 -0.21703248 0.10916594 0.51733273 -0.4990869 -0.011350346 0.20885529 -0.54006636 0.6119256 0.5715931 -0.44467583 -0.34340367 -0.5619603 -0.3891544 0.20405151 0.47945526 0.03861939 0.03431612 -0.31346244 -0.31332967 0.06818938 0.42496994 -0.15773644 -0.07243163 -0.035428774 0.7580506 -0.060712818 -0.44677243 -0.7602891 -0.6959458 0.215354 0.24427426 0.49473247 -0.17144458 -0.8186075 0.2670295 0.3716779 0.048637718 0.17025656 -0.3768908 -0.5417914 -0.07369595 0.35082123 -0.38955778 0.005354054 -0.0029372415 0.5466183 -0.46955705 -0.19559802 0.56167245 0.4393385 -0.5404391 0.07584496 -0.43237987 0.34668902 0.1992753
की 0.18390332 -0.03748449 0.19849889 0.03500012 0.064147174 0.27319816 0.2176473 -0.38736042 -0.121815406 -0.91516197 -0.07953824 0.061493978 -0.16770913 0.28742966 0.14932631 -0.2725127 -0.009032897 0.6665399 -0.29492426 -0.468638 -0.14755687 0.43938395 -0.64948326 0.0056713116 0.48537013 0.65042603 -0.7152088 0.53640574 -0.60812557 -0.06066526 0.61072767 0.60487854 0.20785029 0.3006402 0.3871505 0.114498354 0.25807112 0.49478498 -0.13890815 -0.29826817 -0.048706204 0.29050362 0.30497435 0.26527166 0.83302397 0.4258535 -0.24443181 0.322207 -0.013053214 0.07594586 -0.30467975 0.1033077 -0.07722141 -0.19903499 -0.020926604 -0.12260433 -0.088661306 -0.19690168 0.14295405 -0.19999878 0.09013039 -0.034158114 0.32836586 0.36548814 -0.03105249 -0.16266307 0.2533379 0.5855478 0.22498453 -0.008333371 -0.633059 0.7115365 0.24794015 -0.09744316 -0.41859564 0.66295147 -0.5633535 -0.22321399 0.43170163 0.4281926 -0.23779573 0.42419153 -0.52819127 -0.42406505 -0.4193575 -0.4056563 0.42230162 0.4271094 0.17453133 0.27219442 -0.27139536 0.49783623 0.02294844 0.00062038255 -0.2613714 0.10381468 -0.06530368 0.11908548 -0.08338705 0.39395186
मी -0.18663889 0.29144475 -0.47067222 -0.2461053 -0.4356341 0.34769222 0.3162795 -0.06716424 -0.10194647 -0.5843315 -0.20888336 -0.004380239 -0.22935826 -0.10859692 0.6829727 0.4789281 0.5318038 -0.3410394 0.1481667 0.61061925 -0.49697945 0.37663984 0.45037362 -0.0037306559 -0.089061834 -0.20670314 0.7494448 0.4239009 0.3037231 -0.28543124 -0.69726235 -0.27486295 -0.70816696 -0.31148463 0.34834287 0.22947185 0.06837775 -0.13544674 0.18410686 0.19764045 -0.7357484 -0.04614115 -0.2896198 0.30635113 0.16753288 -0.5135438 -0.020066096 -0.2840364 -0.08033788 0.59953296 0.28185475 -0.64645004 0.118597396 0.6337617 0.013894801 0.32290223 -0.6639394 0.23443173 -0.7162178 0.468022 -0.30835065 -0.44962025 0.101972885 -0.27641875 0.29829606 0.17026874 -0.55469656 0.05664523 -0.25946838 0.4170412 -0.14503597 0.58788276 -0.83892334 0.41258833 -0.18256004 0.40072826 -0.19776402 0.42304742 -0.17996937 -0.19491342 0.6387684 -0.42618278 -0.59230125 0.21683009 0.31582156 -0.2949164 -0.08822105 -0.5480866 -0.1492658 -0.06178382 0.52793 0.35946888 -0.09528009 -0.08426398 0.41084287 0.3007804 -0.66373867 -0.27323607 0.18536198 -0.16617943
अनेक 0.42018512 -0.09119722 -0.025662497 0.31063893 0.37862816 0.4365791 -0.3751052 -0.4414692 0.06319714 0.13289091 0.11979647 0.4130692 -0.35712785 0.019671708 0.5065302 0.59316784 0.1508629 -0.30073056 0.34965926 -0.437536 -0.1797827 -0.3638617 -0.43573448 -0.11358782 -0.28493413 -0.20035745 -0.36530292 -0.32255545 -0.33809176 0.20626679 -0.4423531 0.77704316 0.30109736 0.1811261 -0.35770807 0.32608786 -0.02040532 0.1973847 0.46091506 -0.21283019 -0.542761 -0.103159696 -0.36369663 -0.4120373 -0.3103516 0.086674884 0.09876922 0.08807436 0.63898355 0.2967467 0.09648115 -0.3097269 -0.280828 -0.242499 -0.41988686 0.690211 0.04450814 -0.056904126 0.6144169 -0.4039469 -0.20284854 -0.27479765 0.3080883 0.71471554 -0.25460276 0.19724564 -0.14545308 -0.22065362 -0.25133964 -0.636826 -0.4404881 -0.16584775 0.23494716 0.18790527 -0.014850003 -0.14013144 0.37925825 -0.2723984 -0.2764825 -0.027681293 -0.17543429 0.15326299 0.27621543 0.30919832 -0.05743894 0.17367233 0.07933003 0.017211894 0.08710986 -0.1828599 -0.3638129 -0.40216953 0.17428344 -0.18443888 -0.49879873 0.2230228 -0.30395925 -0.08284318 -0.017769665 -0.2880854
विरोधात 0.19063133 -0.3024846 -0.15843305 0.4541475 -0.671276 0.34506777 0.43799183 0.55306023 0.06858732 0.32162285 -0.15379596 -0.43432868 0.14438218 -0.068447694 0.58407706 0.4168895 -0.327069 -0.20714995 0.32627273 0.60542583 -0.18121658 0.017611707 -0.6339726 0.3761455 -0.5761496 0.39795136 0.14012359 -0.05041301 -0.30611122 -0.08607742 -0.3552791 0.75672287 0.1586178 -0.20162025 0.22842583 0.5364075 0.42847782 -0.407767 0.074586 0.16829723 0.073424 -0.4316863 -0.117751785 -0.46683297 -0.59456664 -0.7036467 0.1301182 -0.47536707 -0.52777076 -0.3729453 0.38044092 -0.41973245 -0.46561417 0.4478642 -0.6237893 0.28554404 0.41151047 0.64227784 -0.10546962 -0.114737675 -0.57282126 -0.66232836 0.1401441 0.78822255 0.19167794 0.63890374 0.1674347 -0.19436558 -0.0895238 0.5799175 -0.27341273 0.0060292445 0.3137946 0.058428336 -0.6681332 0.43826863 -0.12649457 0.37762335 0.121354006 -0.49145758 0.5555562 0.36199686 0.5921447 0.017467298 0.5426586 0.2614988 -0.3438296 0.5590537 -0.009645139 -0.39427546 0.5280072 -0.64974487 -0.46217293 0.34216702 0.25607306 -0.017746365 0.054690614 -0.112572156 0.66028297 0.53496987
मला -0.37689143 -0.049543373 -0.10442045 -0.11877201 -0.22815385 0.48233035 0.18814471 -0.12659976 -0.2086079 -0.22678122 -0.34905705 -0.5763268 -0.29891714 -0.4520675 -0.023320623 -0.38849327 -0.28786048 0.1844398 0.16685228 -0.22069374 -0.17721339 -0.11319222 -0.06355984 -0.30079916 -0.16353825 -0.49083754 -0.4731876 0.43689713 -0.6801146 -0.25016478 -0.037774652 0.512465 -0.24785244 -0.19842526 0.008589978 0.17799433 -0.5518306 0.53700745 -0.29064175 0.6528612 -0.21466123 0.21871702 0.08872283 -0.057751913 0.61038744 0.23976095 0.20072548 0.40061587 0.6186955 -0.184799 -0.2581359 0.10355955 -0.61944115 -0.022958752 -0.1700055 0.2271498 -0.061127577 -0.33133215 0.26823843 -0.3232065 0.45748705 -0.34516585 -0.22367892 0.5282458 0.13034503 0.031742744 0.015071794 -0.093790196 0.28237653 -0.338208 0.035870977 0.09132812 0.306702 0.45396218 -0.57579726 0.50626 -0.05229998 0.26103243 -0.19381735 0.5763887 0.18043531 -0.12450704 -0.13865975 -0.30640182 0.454072 0.054359313 0.07646842 0.06734659 0.12919219 -0.110350534 0.02452694 -0.47729936 0.49525073 -0.28075895 0.6939913 0.61611366 0.010415376 -0.14471948 -0.5349687 0.08300456
का -0.41129178 -0.15619786 -0.019085163 -0.047987502 0.3306218 -0.1840209 0.08144401 -0.10764354 0.1357757 -0.078314 0.5686457 0.42858386 -0.18213746 0.032602474 -0.080253296 -0.16084637 -0.5503447 -0.16405608 0.054349277 0.0033581979 0.5088085 -0.1872593 -0.09740496 0.2593867 0.11971882 0.45501843 -0.38155854 0.09692465 -0.655384 0.41958547 0.4171951 0.54193795 0.23238125 -0.27488172 0.120497994 0.26166153 0.10461261 0.4242186 0.1585459 -0.20005642 0.19213985 0.011954279 0.0040586763 0.5908344 0.48886585 0.13135561 -0.52943903 -0.34753445 0.5091888 -0.47322932 -0.06739404 0.27789766 -0.07592243 -0.30068538 0.14087051 -0.19123346 -0.16156791 -0.38370794 0.46053803 -0.5634378 -0.31996533 0.195219 -0.021627406 0.05254754 0.32349396 -0.5158379 0.6369971 0.21169467 -0.2874784 0.027346049 -0.24356632 0.57823324 -0.03199924 -0.06357244 -0.10467546 -0.109183155 0.04744804 -0.051178366 0.55097705 0.08955077 0.030136997 0.30073252 0.2172996 0.23328617 -0.30263644 0.41318643 0.026320528 0.50150204 -0.12931007 -0.08748776 0.14782122 -0.22773418 0.24566971 -0.6196142 -0.13194509 -0.36639464 -0.09995274 0.66615725 -0.06703098 0.21056896
तो -0.15976162 0.62241876 0.18832068 0.22932854 0.4030424 -0.24396105 -0.54921484 -0.30114368 0.1375689 0.7553478 -0.09023353 0.13742916 -0.27827412 0.44698316 -0.31320745 -0.3021328 -0.19236796 -0.50527436 0.29100236 -0.45740324 -0.0622076 0.42278743 0.09847747 -0.38410228 0.19054575 -0.021534827 -0.40654686 0.663003 -0.7387174 -0.10155233 -0.46019217 0.42209545 -0.0759445 0.09152035 0.23546006 0.3105971 -0.07929091 0.36456138 0.5890273 0.6066329 -0.05870454 0.3605304 -0.18272308 -0.15724254 0.55173844 0.4764161 -0.16888836 0.080684274 -0.26539585 -0.25949538 -0.49404755 0.4779301 0.3725113 0.22803496 -0.0019574221 0.49729422 0.025519123 0.48309556 -0.08361195 -0.3875806 -0.21642998 -0.05935287 0.12018254 -0.27458924 -0.38422948 0.09553972 0.4633507 -0.108298175 0.2919811 -0.3056832 -0.6623105 0.39818633 0.39238432 0.05145792 -0.6857099 -0.02748981 -0.5843883 -0.5695138 0.19340105 0.53220737 -0.052568767 -0.73299515 -0.6557776 -0.34828153 0.55068225 0.25672135 -0.12296568 -0.49787772 -0.006036285 0.38402715 0.58329403 0.30556604 -0.13060461 0.025646714 -0.2127151 0.020152465 0.5246036 0.35800382 0.36331418 0.19535354
होते -0.5150668 -0.5571008 0.417533 0.059206855 -0.38134828 0.39826626 0.23372614 0.35283628 -0.03935246 -0.09241301 0.021276068 -0.24883902 -0.0024658542 -0.61651903 0.33001354 -0.25946823 0.020312114 0.43663198 -0.5845454 0.017433884 -0.117239244 -0.013282612 0.24800085 -0.60594654 -0.3031415 0.27131748 0.21513101 0.06866164 0.33388564 -0.14647026 -0.2186747 0.4001311 -0.48737383 -0.11083619 0.016952867 0.12572089 0.05252753 0.4293461 -0.1661195 -0.6535664 -0.35860398 0.30930802 -0.20460027 0.35036406 -0.3218857 -0.14133759 -0.13680889 -0.6193074 0.61591464 0.25661594 -0.18821311 0.15184486 0.21653432 -0.14458214 -0.089051016 0.3014426 -0.41962436 -0.24118012 0.18423222 -0.40178055 0.15444556 0.040054433 0.22188395 -0.12142928 -0.366495 0.091226645 0.29220894 0.06551093 0.28584802 -0.02555917 0.42942098 0.40770182 -0.23789395 0.47128636 -0.11682808 -0.20114745 0.24377498 0.28582937 -0.49588344 0.08297933 -0.3670136 -0.5062926 0.19122091 -0.020433515 0.29628435 0.35183385 0.33034977 -0.01536063 0.018421883 0.568571 -0.5568424 0.1037654 -0.2323462 0.25233027 0.17531519 -0.16119339 -0.23225103 -0.11737198 0.10535092 -0.13773711
असते 0.43441752 0.22503881 -0.5292294 0.019235797 0.22957493 -0.098502755 0.47811583 0.34966713 -0.5173215 -0.24509989 0.4171709 -0.4068963 -0.24315326 -0.33195996 -0.04054698 -0.4638179 0.48055923 -0.08994911 0.07238781 -0.24936141 0.15524985 -0.2847193 -0.5079632 -0.6203249 -0.09769897 -0.18457067 -0.6597429 0.3382518 -0.3118275 0.3263744 0.37355468 -0.1423774 -0.021487087 -0.05497552 -0.36072958 0.44940045 0.35463414 -0.19655167 0.029581785 0.0906451 0.09794258 0.5200753 -0.20223787 0.066909835 0.11913964 -0.15846309 -0.27181906 0.39937294 -0.3464786 0.27100438 0.22961773 -0.1252493 0.20608887 0.05020598 -0.44631287 0.36841378 0.313454 -0.031568974 -0.33621287 -0.29265082 0.4934928 -0.3708646 0.47648725 0.15735096 0.05233846 0.45806447 -0.20529474 0.4619804 -0.089343674 0.40596825 -0.31689134 0.0029921548 -0.5124658 -0.4832649 -0.55372435 0.028492162 -0.21373998 -0.41230994 -0.5930931 0.25771964 0.48185688 0.35751078 -0.6517862 -0.0700462 -0.49155787 -0.5097879 -0.36860868 -0.3510228 -0.3215873 -0.18206617 0.52455866 0.41774985 -0.34077886 0.26672572 0.097711354 -0.1275818 -0.41409582 -0.11366013 0.28229007 -0.16753925
करून -0.5460885 0.51333416 -0.5100278 -0.52877903 0.0577781 -0.020205848 -0.27575448 -0.016672775 0.35983554 -0.09316657 -0.3209561 -0.5636131 -0.48743525 -0.46935594 0.09129153 -0.12218712 -0.5486862 -0.24214227 0.20574391 -0.21231858 -0.6518151 -0.6144774 -0.37861484 0.12103912 -0.1519105 -0.115125395 0.53064734 0.75592005 0.520863 0.44119856 -0.124391474 -0.717929 0.31896585 -0.63476205 -0.32068965 0.05284285 0.41450074 -0.22014272 -0.6650871 0.7439127 0.19510151 0.2590391 0.009205048 0.35355467 -0.49648333 0.07523771 -0.39768967 0.7623108 -0.49263835 -0.3508904 0.29416874 -0.24188468 0.5952253 -0.4159772 -0.063216224 0.2660665 -0.56750077 -0.058614068 0.3348655 0.4415436 0.27820754 0.386056 0.6343114 -0.016653143 -0.17821099 -0.09803341 -0.5878493 -0.4747499 -0.34617984 -0.3394429 0.5353396 -0.3283534 -0.19756442 -0.35440478 0.26319453 0.07109293 -0.044636756 -0.12753436 -0.76034683 -0.695806 0.3472673 0.3347947 -0.721584 0.23565692 0.44064724 0.6290766 0.68962526 -0.63435537 -0.25687012 -0.6204083 0.2046225 0.86892617 0.24961434 0.46170262 0.26285496 -0.32544416 -0.06064214 0.040060524 0.14464676 -0.6237547
जे 0.33241165 -0.3336301 0.22980034 -0.55456316 -0.22988522 -0.45642146 -0.11430603 0.53116626 0.17552914 -0.2009686 -0.35713306 -0.13616124 0.49370673 -0.59442484 -0.3526143 -0.47320873 0.09630619 -0.0664258 0.3887975 0.46758616 0.18572147 -0.022847714 0.12187933 0.53788584 -0.37434047 -0.30378038 0.38216603 -0.34961414 -0.34859806 -0.55608517 0.6008367 -0.18138611 0.38005373 -0.33425346 -0.61484104 0.3001352 0.20286368 0.11277573 -0.54818356 0.14397167 -0.004893777 -0.73080057 -0.38987118 0.10552229 -0.3617086 -0.38461658 0.6204791 -0.6492382 -0.5639158 -0.5349634 0.3981164 -0.42069903 0.44852173 0.2823843 -0.42546546 0.6770806 0.0498 0.11290012 -0.64419675 0.38778543 0.097874284 -0.4090876 -0.37554637 0.7051758 -0.4266096 0.03439712 -0.49420974 -0.17926097 -0.3397437 0.29803467 0.41434684 0.046089184 -0.19441926 -0.6877046 -0.05685824 -0.60932386 -0.46305946 -0.07396544 -0.046450634 -0.29761004 0.5221008 0.3051718 -0.5101761 0.3709089 -0.56700516 0.5416387 0.15888785 -0.0914818 -0.5253497 -0.06626788 0.603443 -0.4736216 0.31185406 0.14801455 0.11721193 -0.1961389 -0.46082938 -0.2641201 0.44442728 -0.024675148
करतात -0.375006 -0.41395414 -0.26324064 -0.28274757 -0.13164364 0.38328484 0.314148 0.28306752 -0.02153042 -0.0014027102 -0.29679656 -0.20696656 0.055711392 -0.29101717 -0.28477108 0.24071866 -0.38390058 -0.2784556 0.3808694 -0.15788634 0.06457247 -0.26659593 -0.23901868 -0.010069611 -0.24236546 -0.24250886 0.08606658 -0.5266126 -0.11498831 -0.43722823 0.1601389 0.08380789 0.36870748 0.022087403 -0.4146792 0.10005988 0.31795362 -0.44557562 -0.4801017 0.0415766 -0.5565614 -0.44874537 -0.31981483 -0.0988427 -0.42804858 -0.21465456 0.35021642 0.029696299 -0.4597754 -0.117942855 -0.3258645 -0.6438676 0.46888736 0.16866474 -0.19752525 0.48893523 -0.13376047 0.11646599 -0.32533655 0.50977707 0.37335095 -0.44688752 -0.24041574 0.15243967 -0.49860385 -0.420653 -0.12430349 -0.36684915 -0.34135562 -0.021683551 0.09577656 -0.3736901 -0.34055808 -0.32693604 -0.34417298 -0.5022089 0.2317618 0.16269709 -0.2699617 0.111159466 0.4181748 0.43558693 -0.26011318 0.21767159 -0.5614911 0.0027466472 0.49279198 -0.5600581 -0.025887584 0.26460993 -0.26260012 -0.34251514 -0.05715425 0.15593581 -0.27927467 -0.33306542 -0.4284728 -0.47810015 0.17933428 -0.5517889
केला -0.4147287 0.46694118 -0.10306144 -0.0764802 -0.13140158 -0.17805137 -0.4676117 -0.07982184 0.6568958 0.4588258 0.37902436 0.14801978 -0.22690296 0.0064149695 -0.022839589 -0.22475173 -0.3508995 -0.14112534 -0.081471674 -0.2758136 0.24283375 0.2703359 0.2771428 -0.49211213 -0.10911173 -0.16388296 -0.5003797 0.4230629 -0.2681846 0.051619112 0.06980022 0.5644615 0.39892474 0.09280326 0.27833474 0.03958381 0.43997967 0.50010175 -0.0854485 0.5730138 0.33015567 -0.15020885 -0.16519725 -0.18384124 0.2535558 0.064842775 0.19333927 0.31366825 -0.06866455 0.1582773 0.042292938 0.17828049 0.41606045 -0.07461867 0.110872865 0.1037448 0.41004467 -0.00701792 0.24946573 -0.34259525 0.0053903884 0.50685775 0.52935797 0.41881347 -0.17063338 -0.05000449 0.15773687 0.21434093 0.48919913 0.21307728 -0.08674901 0.38730663 0.5065933 -0.20712993 -0.07347965 -0.30813307 -0.07410814 -0.15874767 0.38626468 -0.14287728 -0.22144005 -0.53245175 -0.55329305 -0.5732923 -0.016728688 0.3695404 -0.2938331 0.13981014 0.17239647 0.44120646 0.28497055 0.48297143 -0.057110157 0.24139865 0.500582 -0.18729636 0.107187904 0.3854914 0.119459145 -0.24594961
ही 0.3997659 -0.33320484 0.667469 0.44165838 0.31375524 -0.39747322 -0.22589168 0.4123188 -0.6433737 -0.6907707 -0.32722858 -0.34952027 -0.14096224 -0.6677737 0.07327838 0.46515405 0.13179733 -0.2988809 -0.7374528 0.21737887 -0.29067656 -0.49351963 -0.19643465 -0.18953314 -0.44025508 -0.08417035 0.2963109 0.27427894 0.5345614 -0.2177398 -0.280743 -0.23942815 0.2699829 0.22227755 -0.059143156 0.44015655 0.49633667 0.27379277 -0.1474909 0.27174082 -0.4284114 0.1715874 -0.2625624 -0.12289984 -0.42961198 -0.009023553 0.34849724 0.02470329 -0.2725935 0.64231634 0.03288849 -0.41333342 -0.5575087 0.44074592 -0.29792416 0.1766188 -0.23214252 -0.2301764 -0.25536713 0.2480177 0.13145754 -0.44803658 -0.2718098 -0.3626713 -0.09732739 0.56389314 -0.42080337 -0.25188297 0.05264952 -0.015979664 0.4345658 0.27208832 -0.4333423 0.29719248 0.41801205 0.108513944 0.2927049 0.34618133 -0.44974953 0.23235832 0.27970317 -0.074372664 -0.5642936 0.12355737 -0.24585856 -0.8193286 0.7270926 0.029705174 -0.17546673 -0.37680084 -0.06379048 -0.36769176 -0.26041916 0.15140806 0.2954494 0.13291691 0.31749985 -0.032354787 0.22970699 -0.54225874
इतके -0.5666229 0.4760581 -0.26071575 -0.25437993 0.010642922 -0.03913519 -0.028213441 -0.02939911 -0.1460425 0.117901824 -0.06142711 -0.020114262 -0.6452107 0.17570211 0.07100102 -0.30157822 0.31326434 -0.1661019 -0.6026816 -0.66065973 -0.09110896 -0.208906 -0.41315636 0.23627512 0.4321077 -0.25537288 -0.12802394 0.5896624 -0.2636635 0.47388825 -0.02336405 -0.19320685 -0.33459473 0.2333111 -0.09947938 0.20180567 0.029118164 0.2782599 -0.17847152 0.7611115 0.0339584 0.2686247 0.049993396 0.05595007 0.066337004 -0.07467868 0.14283314 0.6123704 -0.010678633 0.22621427 -0.50621223 0.24949846 0.08047431 0.38094422 -0.2722722 0.0028687755 0.2891939 0.27591348 -0.022068033 -0.13361272 -0.1823629 -0.18999295 0.41167703 0.3492861 0.010112296 -0.31606045 0.3587297 0.658703 -0.29590976 0.25429714 -0.15851788 0.19786417 0.13095117 -0.4002094 -0.14196153 -0.14841723 -0.025850559 0.017522467 -0.21271159 -0.50145257 0.24886681 -0.1304241 -0.69420403 0.5860492 -0.48264706 -0.6976636 -0.070274934 -0.17439502 0.34041104 0.5887616 0.40164375 0.30229944 -0.60135585 0.050937433 -0.24164926 0.55570245 -0.070593946 0.43231416 0.072813824 -0.0141525725
हा -0.3973391 0.07093155 -0.12716879 -0.08018537 -0.54357994 0.20662199 0.1983038 -0.40164277 0.20349067 0.37484127 -0.17751963 -0.25096792 -0.31015217 0.08824851 0.20380883 0.22291605 -0.15465288 -0.12689398 -0.46485943 0.42673436 -0.16606063 0.47249326 0.49169824 0.19364947 0.3475675 0.07716257 -0.14340413 0.46084157 0.27007356 -0.11025524 0.28892988 -0.26901293 0.107603796 0.083069354 0.23870598 -0.4927057 0.4012901 0.02854166 0.48709127 0.22449699 0.58134705 0.025754545 -0.11777963 0.3442269 0.35749543 -0.31338924 0.13838753 -0.035712156 0.27432114 0.24329744 -0.29447925 0.17798394 0.24037115 0.15523574 0.2741123 0.14000754 -0.21425541 0.18276449 -0.47201124 -0.44462892 -0.062195957 0.19324096 0.5540662 0.42246738 -0.031898893 -0.33798337 -0.02318839 0.02497234 -0.24427292 -0.13194545 0.41736442 0.48908997 0.2963145 -0.54501295 0.2530135 -0.52302974 -0.47899398 -0.29937202 0.26147452 0.18211877 -0.2845479 -0.32540226 -0.42615622 -0.30639598 -0.5517693 0.051051185 0.07871493 0.31785336 0.4469235 0.46016327 0.013141187 0.011499111 -0.36871415 -0.34558934 -0.044316724 -0.3109639 -0.110557966 -0.05964732 -0.36231035 -0.46781555
असलेल्या 0.11551858 -0.1434392 -0.17336941 -0.14176083 0.50090265 -0.30345976 0.10043161 0.21595879 -0.3925361 0.4087583 -0.3982628 0.0066178995 0.44078162 -0.20288125 -0.010525038 0.22246279 0.67354757 -0.13961378 0.20693915 0.46754488 0.4601239 0.5457101 -0.38164502 0.09395133 -0.2917202 0.12944503 -0.11172624 -0.28091022 0.6319847 0.06712737 0.079905726 -0.3929086 -0.6595212 -0.25477448 -0.23652372 0.030280387 -0.6491677 -0.32789078 -0.15426038 -0.5849062 0.22425586 -0.45187566 0.09305025 0.013849123 0.3123587 0.341415 0.09231509 0.3295818 -0.40149325 0.30886507 -0.1545976 -0.52383363 0.049469486 0.22609161 -0.09179432 -0.23307714 0.16132982 -0.14799169 -0.19466448 0.23538831 0.35523415 -0.16155857 -0.14475034 0.05116681 -0.19035713 0.47388163 -0.32536018 -0.3058042 0.19302529 0.17194645 0.42134055 -0.38159123 -0.35809395 0.76245344 -0.65782046 0.51670575 -0.08247894 0.1581014 -0.5337328 0.46425587 0.2310662 0.40104005 0.62256885 0.0058633764 0.078242645 -0.04882472 0.26905534 0.33126622 -0.44276705 0.161933 0.54659307 -0.35553744 0.29592955 -0.007906096 -0.3300411 -0.12417188 0.23965487 -0.28520355 0.076654896 0.47105193
याचा -0.31307706 -0.17229773 0.12928277 0.33529204 0.23707855 0.28500006 0.32923612 -0.19729096 -0.0611652 -0.20348947 0.39821053 0.3829305 -0.33045852 0.026173284 -0.0069714594 -0.15224822 -0.12938213 -0.07063072 0.28952333 -0.06246968 0.2439072 0.38617617 -0.23099239 0.25165087 0.549659 0.22784562 0.15851009 0.4568217 -0.38806665 0.3332633 -0.06400087 0.044341773 0.20905648 -0.18339798 0.15946403 0.1283865 0.120011985 0.39269146 0.024470724 -0.062345672 0.574819 0.13864271 0.024358261 0.04476913 0.43044475 0.009217028 -0.5112003 -0.18478426 0.15157235 0.09114529 0.051488046 0.07806165 -0.5512717 0.042684913 0.13549475 0.14632815 -0.16857888 0.06563465 0.2053794 -0.028601583 -0.042631324 -0.16399066 -0.018090779 -0.07800918 0.3798842 -0.18980579 0.3585366 0.5842623 0.43350336 -0.30583817 -0.33064452 0.43896183 -0.08657856 0.19150984 -0.19807841 0.43117526 -0.3903257 0.057939608 0.25360236 0.1790211 -0.09022647 -0.12128162 -0.006528603 -0.6919887 -0.2988541 -0.24110025 -0.45761073 0.2823622 0.16845122 0.2190334 -0.17934158 -0.28879887 0.063742176 -0.32936502 0.23123056 -0.07832826 0.5507771 0.41074455 0.09011544 -0.08308717
कर्मचारी 0.24501292 0.018826885 -0.12628962 0.10446167 0.27328378 -0.14586775 0.27476573 -0.1874385 -0.3103916 -0.13964456 -0.24814852 -0.48291472 -0.48906904 0.29184875 0.31391954 0.018444767 0.20954148 0.26876867 0.30255893 0.07435011 -0.58033705 -0.08882544 -0.55995375 -0.33565727 0.08842468 -0.03432354 -0.44019744 -0.38259113 -0.30674195 0.06823104 0.15789793 0.23906875 -0.6836217 0.1863212 0.224824 0.06675207 -0.57363206 -0.08512868 -0.12465333 -0.38950092 0.022817334 0.13779363 0.4659376 0.13097697 0.37397286 0.13052078 -0.044808183 0.36024007 -0.18942323 -0.09164957 0.1476252 -0.049188484 -0.15132332 0.26732296 -0.08360173 0.31752858 -0.08650755 0.24869648 0.28236485 0.029557269 -0.14204344 -0.031679157 0.11841596 -0.17164084 -0.18842028 0.1235276 -0.31441224 -0.23505591 0.20077 0.20285474 0.38067797 0.016397431 0.16388273 0.5616869 -0.29564604 0.24061082 0.099150755 0.15630198 0.1514277 0.43345538 0.08043703 0.21804406 0.19561478 -0.5758353 0.044759315 -0.3521984 -0.25014842 -0.1479643 -0.3541483 0.062174596 0.5180793 0.13391717 -0.36933443 -0.10965299 -0.5455703 0.278497 0.13740866 -0.08888129 0.08219084 0.39569387
त्याला 0.39957765 -0.35494083 -0.49771398 -0.12758544 -0.62791437 -0.516548 -0.480069 0.26109672 -0.34699076 0.31788737 -0.39691252 -0.1378946 0.3146976 0.36534947 0.049480326 -0.06924388 0.58893645 0.63295954 0.42900604 0.3969725 0.53493625 -0.21119893 -0.22715518 0.20059195 -0.28662166 0.070339024 -0.5443409 -0.075678706 -0.6750559 -0.4221953 -0.15342666 -0.51031965 -0.4060925 -0.47992224 -0.5325848 0.3151813 -0.3829731 -0.18365881 -0.25979218 -0.4808715 0.2742986 -0.32589218 -0.32040834 -0.2555994 -0.1011859 -0.59934914 0.4441763 -0.5085977 -0.21610318 0.3911734 -0.682978 -0.5203446 -0.6878861 0.39142048 -0.34158856 0.24065283 -0.48464304 -0.21120009 0.41293967 0.48460814 0.2532316 -0.35997686 -0.40993595 -0.51482403 -0.10620444 0.5659682 -0.41222006 -0.2459609 -0.28349078 0.51603734 -0.08710319 0.028006678 -0.41148528 0.2823386 0.031645164 0.70265657 0.08300784 -0.26595208 -0.5263957 0.6736689 0.64270246 0.033949498 0.23072173 -0.626667 -0.5502744 0.021665063 0.4011186 0.5964722 -0.46131167 -0.45624724 -0.17696139 -0.36442462 0.41395694 0.46309197 0.50739574 -0.4831275 -0.12151552 -0.19503632 0.12592421 -0.31356156
होत 0.20765366 0.19400032 -0.0004313554 -0.026525503 -0.36123756 0.04152745 0.0015791875 -0.26980335 0.0030785985 0.4331892 0.16096117 0.17212363 -0.19829305 0.047315955 -0.13473631 -0.3325822 0.072119266 -0.06706769 0.17597027 0.06288996 0.25231043 0.51985604 -0.21410005 -0.6296884 0.3138243 0.015828615 -0.33850417 0.4507512 -0.46664527 0.22474527 -0.17169333 0.43343604 0.6778712 0.19570494 0.35244352 -0.2433189 0.4308291 0.058043234 0.20974597 -0.19531202 -0.36300358 0.05637968 0.17428136 -0.081158265 0.105780885 0.3459264 -0.17923428 0.06371462 0.10666939 -0.04315725 0.022944452 -0.21986352 -0.41579887 -0.071443 0.013244697 -0.1623855 0.3532555 0.41234332 -0.08711072 -0.2642434 -0.3744089 -0.042306058 -0.04361807 0.2928547 0.12645516 -0.1672622 0.013563058 0.29450923 0.08699181 -0.21719287 -0.27709264 0.27117124 0.09679704 -0.08573767 0.001167089 0.11061931 -0.24532056 -0.41622582 -0.08707073 0.38219914 -0.3123295 -0.45419967 0.13692452 -0.41763827 -0.13388707 -0.35455525 -0.46636838 -0.035508946 -0.12554042 -0.148507 -0.065589175 0.1249626 -0.44283214 -0.08372912 0.13998778 0.4364009 -0.056954373 0.13496004 0.01560417 0.30382892
ओळख -0.03628035 0.044493075 0.2703378 0.23534615 -0.14126515 0.21764986 -0.009304453 -0.39615878 0.046321165 0.09125755 0.20874852 -0.0793443 -0.2973554 0.19445859 -0.22971883 -0.105659135 -0.27035818 0.13432819 0.45089877 0.27314213 0.24134631 0.50512034 -0.52217567 -0.21108592 0.48629588 0.37743464 -0.24292743 -0.10420634 -0.34990832 0.14087999 0.053705286 0.17630708 -0.20229647 0.09723268 0.23054883 -0.13252945 -0.34045315 0.29966822 0.372118 -0.18674257 0.38404185 -0.0012299871 0.12885153 0.08656972 0.23847044 0.26122615 -0.24447322 0.19341242 0.17283916 -0.24674115 -0.13878866 0.2682078 -0.38206506 -0.047042742 0.25344193 0.2726776 0.11572169 0.08195506 0.2740527 -0.25065067 -0.097665876 0.2448828 0.15263115 0.28180817 0.077821 -0.46484205 0.05096814 0.065235764 0.34940064 -0.29527575 -0.46131963 -0.011717431 0.35964394 0.10908409 -0.21460529 0.25456572 -0.31663468 -0.38130203 0.26814577 0.4497405 -0.13287768 0.19615293 -0.11603267 -0.30216464 -0.33166626 0.26222745 -0.6203648 0.4713962 0.18681154 0.30608216 0.09767326 -0.26054105 -0.27557832 -0.12886801 -0.14178956 -0.08254673 0.16564324 -0.02554278 -0.10945909 0.22345173
गेली 0.18247119 0.4073516 0.14126417 -0.19533361 0.2959981 0.10952719 -0.34923822 -0.25048873 0.1250302 -0.4433688 0.29295206 -0.3074563 -0.44792628 0.23746583 0.055508018 -0.37114862 -0.383987 -0.08193248 0.39275405 0.12816258 -0.25058526 -0.33956456 -0.46689335 0.049355723 0.35907447 0.15046635 0.13000676 -0.29852065 -0.27185404 0.15482543 -0.38771734 -0.1988479 -0.09028683 0.4507703 0.37848276 0.024752056 -0.38877898 -0.12851661 0.31983787 -0.3126895 -0.45611587 0.12057043 0.3538624 0.08311959 -0.24550413 0.28654498 -0.22050756 -0.28684303 -0.12801987 0.11924069 0.12892942 0.2476277 0.1621714 0.13661428 0.047173504 -0.41527343 0.40221998 0.018112916 0.30631098 -0.16299768 -0.33235496 -0.21262437 0.41225925 0.011283296 0.010380454 -0.117857896 0.28723776 -0.15849717 -0.05399698 -0.021296315 -0.4025271 -0.22213449 0.33974698 0.35577786 -0.2950177 0.021728644 -0.25904647 0.10041652 0.32630917 -0.12852454 -0.34000894 0.1452654 0.40734732 0.29097962 -0.38683662 -0.22880608 -0.40616378 0.36379045 0.355698 0.09566551 0.33607522 -0.34301314 0.34639576 0.1881265 0.004276736 0.39011884 -0.138881 -0.32713753 0.25591522 0.32585678
यासाठी 0.024020378 0.22141369 0.23588721 -0.3920075 0.1683322 -0.19391547 0.1831007 0.35961118 -0.022763083 0.12600344 0.12259932 0.14492622 0.32001904 0.4545072 0.45299262 0.52983356 -0.31277382 0.017457768 -0.1651116 0.2973123 -0.28357485 -0.06595983 0.04652003 0.048208497 -0.081528336 0.1271708 0.2877563 -0.14584768 0.3541365 -0.09620653 -0.27274594 -0.4661678 0.15403539 -0.3455189 0.3784672 -0.17960292 -0.123324394 0.44613037 -0.04451726 -0.18976195 -0.3596371 0.1519058 0.030553823 0.13227957 -0.45681307 0.11954866 0.20646447 -0.42626265 0.027356032 -0.04966688 -0.43753377 0.23642744 -0.29287887 -0.049826458 0.30810642 -0.29795498 0.061302315 0.51417816 -0.033266634 -0.1298728 0.1167103 0.54177874 -0.08442705 -0.024732627 0.501292 -0.020396497 0.25742704 -0.36864305 -0.2488069 -0.35436222 0.23422141 -0.008226074 -0.17329791 -0.26634726 0.22870076 0.4551131 0.15852188 -0.34144506 -0.029791782 -0.06604656 0.024807716 -0.07442888 0.36476204 0.30932868 -0.10371126 -0.49011385 -0.11226913 -0.38143796 0.010497265 0.0976062 0.048159465 -0.24269687 -0.4464296 0.12604287 -0.24960534 -0.45244393 -0.42153597 -0.19321992 0.13027301 -0.2100401
असेल -0.5055785 0.52867424 0.58026177 -0.0033241434 0.36576164 -0.18400183 -0.13015835 -0.3706251 -0.012219534 0.17498194 0.27771443 -0.08969304 -0.41268027 0.4813923 -0.27306432 0.039177686 -0.31198665 0.13221261 0.21551761 -0.28155547 -0.19694214 0.37158173 -0.51746833 -0.4045839 0.43863076 0.5605147 -0.21107624 -0.11149662 -0.07108309 -0.1261544 -0.3699475 0.32138237 -0.38852367 0.3288833 0.39990237 0.36523318 -0.49321693 0.4129593 0.13601366 -0.4040487 -0.5142278 0.5510971 0.40755153 0.29019663 0.34402785 0.33307496 -0.47558206 -0.43789718 0.2730354 -0.2785113 -0.52410895 0.36872515 -0.07435771 0.24572001 0.31130672 0.071323365 -0.08694847 0.45810762 0.4030815 -0.29597133 0.24293311 0.3145865 0.20046721 -0.3092093 0.48215556 0.012934472 0.26770493 -0.43564203 0.24600098 -0.5307078 -0.2122358 0.25915372 0.4967625 0.33797482 -0.13534766 0.2829598 -0.18377413 -0.40699846 0.13684551 0.38541374 -0.11656907 -0.15122934 0.2416285 -0.11380315 0.18777196 -0.3664883 0.08448356 -0.04478031 0.25981852 0.15677741 -0.111060806 -0.20390716 -0.29825053 -0.15071651 -0.22104076 0.3287706 -0.032617413 0.58653104 0.024104333 0.41554
पायाभूत 0.033805147 -0.15277825 0.40421915 -0.30617192 -0.038793094 -0.02575 -0.255581 0.1212069 -0.22285256 0.42202938 0.53873837 -0.31295785 0.14922866 -0.14747953 -0.44136813 -0.3321029 -0.2982066 -0.22412248 -0.4268291 0.15745386 -0.31505796 0.34981233 -0.22081113 -0.33852684 -0.28035 -0.3353283 0.36314267 0.15956695 0.23829475 -0.3713941 -0.4244733 -0.19206874 0.49761906 0.13013957 -0.19480437 0.11464464 -0.30157468 -0.326772 0.35193318 0.26081756 -0.42044857 0.45195955 -0.31607187 -0.31440526 -0.24973029 0.41140905 -0.41826084 -0.055760838 -0.38165322 0.16716795 0.3924152 0.47212017 -0.47401854 -0.41491598 0.18851888 0.39847088 -0.05481512 -0.16389163 0.4083897 -0.42845678 -0.43329346 0.37926266 -0.06840381 0.26421916 0.37291887 0.045415044 0.27752113 -0.43539453 -0.33854902 0.10175218 -0.45240828 -0.2450461 0.23824254 0.3930386 0.1193044 0.24003348 -0.4835803 -0.26651275 0.1420551 -0.2062258 -0.28638127 0.36331022 -0.13976729 0.13577998 -0.42723027 -0.48045725 -0.3070246 0.4575151 -0.32080746 -0.23562229 0.33589637 -0.22475794 0.32440433 0.14585595 -0.16660391 -0.18938746 0.4886186 -0.1404131 -0.027571961 0.39447778
करण्यास -0.16484036 -0.15846573 0.32604742 0.2961753 0.14519392 0.6289176 -0.5524125 0.44782 0.3210289 0.3325665 -0.40600705 0.64515555 0.4270439 0.36640677 -0.31583005 0.3751259 -0.541146 -0.47254142 -0.5710907 0.3658755 0.39557207 -0.40019506 -0.4480445 0.06691669 -0.41868547 0.01531672 -0.37917364 0.56030315 -0.17837492 -0.35725152 0.021675885 -0.09511166 0.58174026 -0.07312747 -0.41790277 -0.02514339 0.2717888 -0.472375 0.40903926 0.6209257 0.34337643 -0.08218964 -0.4120605 -0.1647963 -0.42008993 0.016136367 -0.20414913 0.66680366 0.24169882 0.1132208 0.5087528 0.055664904 -0.30597576 0.2972304 0.42174715 -0.2880197 -0.2612246 -0.3732708 0.00039757486 -0.053079695 -0.16301091 -0.50678694 -0.34659392 -0.2786571 0.5438154 0.033242915 0.5785334 0.2642873 -0.40471303 0.25548556 0.47893637 -0.29434443 0.07831076 -0.24117857 0.542487 -0.6751646 0.33494818 0.49831522 -0.34852612 -0.51079404 0.016588217 0.30144846 0.4055161 0.50531924 -0.5032689 -0.17384155 0.3254443 -0.14753966 -0.24122861 -0.29262215 0.5182427 -0.54280865 -0.13842669 0.2562131 0.055040695 -0.30041555 -0.5373316 0.2121498 0.55136716 0.45533547
लक्षात -0.31545603 0.05353878 0.43513077 0.43592313 -0.4823361 0.10322549 -0.21508513 -0.22316183 -0.031038094 -0.34704313 0.41470388 -0.16876848 -0.16056356 0.2913268 0.22294475 -0.17695433 -0.47106722 0.478238 -0.12736864 -0.26825002 0.38739488 0.25385424 -0.2719053 0.108281456 0.031877965 0.41557035 -0.2812089 0.008067172 -0.3985392 0.3079991 -0.11481478 0.20496458 0.2011686 0.14265545 0.16867448 -0.061202254 0.18695919 0.4188434 0.22380939 0.041353256 0.24291506 0.27900255 0.10238733 -0.08278455 0.16973129 0.12754412 -0.5367523 0.40707538 0.4179135 0.037009418 -0.46329993 0.43701157 -0.4121387 -0.382037 0.06757052 0.49350622 -0.0011412596 0.4893501 0.35038146 0.076274395 -0.33188325 0.2837191 -0.06854106 0.01732725 0.0140070915 -0.46704793 0.082848325 0.026304465 0.41098562 0.027908742 -0.35513216 0.27372622 0.37976888 -0.30226305 -0.43134516 0.10874197 -0.34827927 -0.2728896 0.53613484 -0.10416014 -0.38662136 -0.3536675 -0.49499783 0.5084261 0.19670543 0.0925882 -0.04782364 0.38730338 0.3121675 0.12700091 -0.3097014 0.38487318 -0.06409117 -0.1765649 -0.28604805 0.04461922 0.20286343 0.21479551 -0.43804055 0.22378871
जो -0.28178316 -0.0380153 -0.2894343 -0.40625829 0.16636266 0.49830636 0.0035295172 0.09844529 -0.4348076 0.052137107 0.039913937 -0.17298062 -0.08896665 0.38142645 0.16758831 0.05199801 -0.390584 0.4199136 0.14164524 -0.52361953 0.006238128 -0.24392611 0.0030884023 0.027195979 -0.30975005 -0.039114572 -0.37934807 -0.26164714 -0.18896918 0.10952483 -0.10598905 0.30703482 -0.28834653 -0.07595742 -0.13918854 0.31796482 0.1282853 0.41907564 0.059201386 0.28789312 0.48943824 0.35225537 0.21112685 0.022128956 0.46216387 -0.11828459 -0.49018303 0.2179486 0.24811117 -0.45045716 -0.3975914 0.11647995 -0.0014834472 -0.5545279 -0.19669543 0.17256302 0.24348627 -0.1445362 0.35726953 -0.11648714 0.12733437 0.40706643 0.0051763486 0.19090319 0.28101414 -0.35278764 -0.17191091 0.2815394 0.22487886 -0.52841365 -0.30008098 0.4042873 0.36800247 -0.18635805 -0.22486508 -0.38180918 -0.13149923 -0.5087125 0.052615583 0.19225411 -0.22349107 -0.259578 -0.007061529 0.39134496 -0.3581265 0.33073795 0.101540424 0.24577326 0.030994289 0.39865556 -0.22893184 0.3942504 0.20390902 -0.5127359 -0.07041848 -0.0751247 -0.50072974 0.28946695 -0.04591685 -0.49107438
पैसा -0.29611263 0.29784754 0.19960524 -0.1569112 0.30412418 -0.1956631 -0.37690982 -0.09558976 0.049524285 0.33180976 0.1585426 -0.43662474 -0.16963905 0.4925534 -0.49971026 -0.41439041 -0.47106782 0.34605706 0.4270146 0.04785353 -0.082337365 -0.28424078 -0.5789386 0.22328882 -0.19556801 -0.1992836 0.043054283 -0.34491226 0.20979634 0.38727546 -0.3945477 0.4879432 -0.2694528 0.47909352 0.1694158 0.40589008 -0.19028068 -0.041213457 0.12190341 0.22479992 -0.5785234 0.24633342 -0.16018057 -0.21158767 0.5691271 0.012635777 -0.1422655 -0.27589864 -0.21552844 -0.46082345 0.15524979 0.31444347 0.32746324 0.085129194 0.52567685 -0.16015156 0.25195467 -0.28305772 0.036813207 -0.23612969 0.29818672 0.19181535 -0.15534525 0.07107895 -0.08089518 0.12958139 0.5196675 -0.44202524 -0.19495553 -0.119000316 -0.11425808 -0.20936345 0.6086575 -0.12717205 -0.48090094 0.07906354 0.13216335 -0.51420796 0.31208777 -0.15855934 0.099018276 -0.18885721 0.44623628 0.146406 0.065481015 -0.4316137 -0.28676814 0.041084155 -0.10351308 -0.21838763 -0.15117761 -0.11386349 -0.43821242 0.18475778 0.070797265 0.0046889824 -0.03741767 0.22821021 0.34251198 0.43524587
किती -0.21145667 0.2876221 0.2551441 -0.044842664 0.37699255 -0.34842098 -0.07136873 -0.3174448 0.41101477 0.32695517 -0.13762483 0.17287098 -0.040457312 0.47644442 -0.5189431 0.031144354 0.16298956 0.43197393 0.38893178 0.12876132 -0.23878784 -0.074443 -0.51765645 0.53246814 -0.1852283 -0.31906682 0.021486828 -0.5729686 0.4462503 -0.12517288 -0.2323265 0.54088897 -0.5059615 0.12492451 -0.105436 0.17451039 0.26759925 -0.13648434 0.021173894 -0.108707674 -0.5860787 0.010745513 0.041774273 -0.32885104 -0.2434199 0.14484023 0.03063362 0.0011223195 -0.064252965 0.06467317 0.16628246 0.09078833 -0.22352308 0.39097214 0.060238436 -0.05592355 -0.050042044 -0.43490764 0.32759592 0.11891075 0.14119147 -0.29645345 -0.23916557 0.17834583 -0.41414797 0.40140098 0.31056452 -0.08518583 -0.2176064 0.2095655 -0.39749908 -0.32746685 0.53605914 -0.17741959 -0.483485 0.018341472 0.4762113 -0.4746599 0.05455926 0.056623977 0.4589811 -0.44567445 0.47557217 -0.35355744 0.47086662 -0.61144334 0.1491672 0.4997482 -0.5501277 -0.4486307 0.3904056 -0.19308294 0.107909665 0.14106621 0.037039913 -0.28827536 -0.45541534 -0.21807216 0.45210564 0.5148437
त्याने -0.19310017 0.40914497 0.0035936674 0.24371588 0.38661823 -0.24961415 -0.41890332 -0.4020888 0.3247501 -0.13289689 0.4779982 -0.18720011 -0.5185114 0.44440472 -0.5066855 -0.011883635 -0.46055365 0.0506641 0.18706475 -0.403508 -0.33655733 -0.27711207 -0.26170084 0.063246414 0.02196691 0.14503495 -0.36413485 0.31354707 -0.13546763 0.3143596 -0.5397099 0.13310823 -0.17513461 0.20681617 -0.109248765 0.3779854 -0.25051358 0.4776198 -0.10817707 0.33007506 0.17309417 0.4110595 0.40142268 -0.012805548 0.4207875 0.24286515 -0.17809132 0.37568837 -0.10466908 -0.32900006 -0.5408435 0.12458095 0.37175092 -0.28098077 -0.23553233 0.56646264 -0.08782951 0.122867756 0.44044566 -0.37180293 0.25839558 -0.25950631 0.38522518 -0.2651706 -0.42519993 -0.01386141 0.04517457 -0.18101907 -9.285313e-05 -0.28177986 -0.43400693 0.37122932 0.097279556 -0.21153758 -0.53090614 0.085961066 -0.096499205 -0.4502151 0.25591972 0.08357497 -0.3532027 -0.28657162 -0.17877132 -0.21701674 0.4284687 0.28006375 -0.13269877 -0.37358448 -0.18417142 0.13464248 0.37277526 0.29046363 0.18170603 0.20723769 -0.28668246 -0.0742588 0.011638823 0.364781 0.24132675 0.4582917
कुठल्या -0.14554411 -0.09249324 -0.39395592 0.50033164 0.37891033 -0.45557818 0.15984717 0.13348997 0.119132474 0.4650777 0.30152443 0.15527792 -0.5419561 0.33560234 -0.31378272 -0.44961122 0.35586378 -0.026003426 0.4427096 -0.534954 0.1451286 -0.0044318708 0.21954247 -0.006322801 -0.18912505 0.4287404 -0.5923994 -0.24228878 -0.5579485 -0.42836955 -0.17574424 0.202596 0.1790403 0.18007864 -0.19253092 0.476055 0.23833731 0.011288525 -0.062134184 -0.11860177 -0.17824937 0.09106582 -0.07969096 0.07326908 0.5150317 0.31185654 0.31314817 -0.11766843 -0.45837545 0.06491289 -0.2307133 0.2935733 0.49136293 0.2744588 -0.3569122 0.13665468 -0.35937795 0.21160902 -0.14320698 0.093691334 0.17714988 -0.021226428 -0.14310907 -0.12857682 0.007900498 -0.14547406 0.3759338 -0.31677976 -0.36582035 0.4627298 -0.5997279 -0.026844952 -0.15723167 -0.6118705 -0.51159495 -0.11932802 -0.096150085 -0.56214267 -0.07750614 0.032771777 -0.5667232 -0.26126555 0.28290716 -0.21277824 0.48586687 -0.50668603 -0.25153682 -0.2738866 -0.31167588 0.35116443 0.43302432 0.4604839 -0.089655764 0.32714638 0.19377603 -0.271816 0.030789034 -0.18014002 0.25248605 -0.12515697
प्रश्न 0.108853936 -0.35532436 -0.31599897 0.2881454 0.25939125 0.09761159 -0.26998487 -0.29697722 0.40903133 0.056351665 0.508179 0.5296753 0.050574575 -0.3194436 0.36118737 -0.12263549 0.07722205 -0.42033443 0.15444306 -0.3948943 -0.0007600324 -0.34232968 -0.25746062 0.0358883 0.028954934 0.29651442 0.10120377 -0.3768495 -0.2939352 0.2913146 -0.32647458 0.3936948 0.37485722 -0.41715804 -0.070321396 0.5745024 -0.6254038 0.13596612 -0.20547363 0.28555146 -0.039865296 -0.24533041 -0.49991742 -0.41528785 -0.12037167 -0.1482818 0.22497696 -0.15364777 0.5767165 0.28276917 0.20762843 0.007931948 0.15227114 -0.49361476 -0.4336208 0.06041379 -0.20443793 -0.2085457 0.11772771 0.1111435 -0.29125977 -0.3851243 -0.19629796 0.62307966 -0.4219889 -0.19473176 0.28653923 -0.3244383 -0.2750817 -0.14409246 -0.12379139 -0.09520641 -0.078655675 0.27676645 -0.6106251 0.23358625 0.30831435 0.08601143 0.22313543 0.62820613 -0.37511277 0.5326311 0.23096892 0.33272338 0.56309545 0.07683294 -0.21470377 0.53298473 -0.26774502 -0.24823964 -0.2538091 -0.1531975 -0.12799695 -0.03736597 0.4066452 -0.24065611 -0.08657125 0.12640584 0.35509428 0.041360285
पुढील 0.0017987372 -0.41407448 0.44383168 0.44568726 -0.22417657 -0.31789145 -0.24125998 0.18895009 -0.21892686 0.10461719 0.1755926 -0.07601044 0.256321 0.41504645 -0.09549912 -0.47443074 -0.43028456 0.58334565 0.34110564 0.3135333 0.14879185 0.022936802 -0.058536988 -0.13870591 0.43216458 -0.20648804 -0.13645516 -0.44776544 -0.4085383 -0.307115 -0.30288383 -0.1040938 -0.19424683 0.23832013 0.1420785 0.24283631 0.30962688 0.4373099 0.588919 0.17703468 0.18415007 -0.10400889 0.22922295 -0.14957438 -0.19053386 -0.15268539 -0.44678205 0.013656046 0.35712513 -0.034361985 0.075936854 0.1594073 0.17657444 -0.6137886 -0.18079789 0.17456457 -0.4150818 0.37226424 0.37844068 0.2621646 -0.024254218 -0.25120386 -0.2411068 -0.29820767 0.20539874 -0.21699293 -0.1389872 -0.19683516 0.034485858 0.091151424 -0.4633516 0.41981974 0.45107782 0.10054477 0.1542295 -0.19614372 -0.37758744 0.0606776 0.5808654 -0.23783155 -0.3375795 0.4546411 -0.5348767 0.43209454 0.22304218 -0.05808527 0.33971226 0.48644292 0.46957234 -0.23940007 -0.4608547 -0.22528338 -0.42841703 -0.08038851 0.012325697 -0.18372713 0.45267913 -0.002384402 -0.34555176 0.16800253
नाहीतर 0.045403957 0.31575117 -0.08398214 0.0020847912 -0.4853204 -0.20609424 -0.2746711 0.1076199 0.09104312 0.26147756 0.36162797 -0.39243487 -0.12133457 0.26543888 0.07353207 0.12350505 -0.14351703 0.25592348 -0.3874318 -0.0584991 -0.2847865 -0.22416672 -0.16060646 -0.08473532 0.108810805 0.21725197 -0.26382574 0.07587233 -0.07207542 -0.022491591 -0.31854725 0.058571666 -0.30597052 0.005256872 0.19912973 -0.039335303 0.22537597 -0.03907394 0.08093169 0.3910889 -0.010792948 0.06531979 0.092208385 -0.20571329 0.07863323 0.051411036 -0.030079419 0.0037710916 -0.099282704 -0.26120374 -0.33186513 -0.0033476984 -0.26800695 0.14029516 0.045015648 0.062987424 0.0036229242 0.33240938 0.03884605 0.28640062 -0.39274403 -0.020532988 0.09051617 0.27825803 0.26674044 0.034281902 0.38676345 0.28517714 0.060995147 0.39295673 -0.0011123983 0.17788373 0.13781233 -0.3110358 -0.155576 -0.051655933 -0.17184962 -0.33805656 -0.066553816 0.35775298 -0.15391795 0.30983907 -0.31882712 -0.028715022 0.20295048 0.11935737 0.09224364 -0.063799225 0.0043421905 0.27030638 0.14617735 0.20159988 0.08066947 -0.32433748 -0.069905385 0.42376557 0.15425712 0.072966814 0.050378624 0.14687286
रॉयल -0.47699207 0.06439174 -0.2574244 -0.19928542 -0.540875 0.17080234 0.43640438 0.14637169 0.093438394 0.16696416 -0.3111653 0.09900167 0.1452218 -0.2659245 0.2338467 -0.3579813 -0.19226235 0.4114439 0.3879091 -0.5573356 -0.42700285 -0.29009575 0.34873956 0.4332475 0.3789486 -0.2637864 -0.19124624 -0.28164035 -0.2497464 0.40039626 0.35877204 0.071862675 -0.18360594 -0.47421613 0.52566344 0.13465859 -0.043697298 0.44872272 -0.010788212 0.36672407 -0.24301001 0.5055887 0.16728565 -0.16646756 0.29191568 -0.042495377 -0.14348911 0.41536433 0.1684217 -0.30978927 0.07471417 0.419898 -0.36083007 0.21092094 0.24690732 -0.41241118 0.39970788 0.26971707 0.23427689 -0.51761717 0.28585207 -0.1575622 -0.035025988 0.07830543 -0.3351044 0.28848165 -0.3561509 0.45313123 0.52941513 -0.040315583 0.37018716 0.4473834 0.45280054 0.30814672 0.31533277 -0.088692665 -0.47468135 -0.43004444 0.10386587 0.4582752 -0.4513777 -0.25015736 0.27549094 -0.21611613 0.51130456 0.0037625255 -0.22027633 0.41239807 -0.39683983 -0.17992607 0.05587322 0.3152444 -0.13630575 -0.04523241 -0.0482121 0.42769098 -0.22461416 0.2877573 0.29324335 0.04277472
सोसायटी -0.38651127 0.4582931 0.23399793 0.014324043 -0.4285172 0.34273753 0.3416403 -0.5625256 -0.26000813 -0.5753325 -0.33183384 -0.0012416528 -0.28874436 0.44008067 -0.16300853 -0.54814374 -0.27278584 0.5021586 0.30465648 -0.41666573 -0.4903227 -0.1423292 -0.46752152 0.0016146438 0.5169514 -0.037919044 -0.40774736 -0.08004391 -0.5096419 0.4206911 0.31620365 0.5483038 -0.17801608 -0.31768158 0.58760595 -0.52463317 0.049586415 0.23587756 -0.19436172 0.3422055 -0.35087144 0.4722799 0.4365115 0.025007218 0.3748588 0.22102354 0.06883385 0.542125 0.5159072 -0.13734975 0.21397588 0.36484987 -0.09709193 0.05872642 0.11922402 -0.37092778 0.36278322 0.5912105 0.32826713 -0.08061444 0.25713357 -0.21350034 -0.26037773 0.45688602 -0.22962861 0.50524473 -0.24883768 0.2642026 0.17148513 0.5338603 0.26789847 0.51755595 0.43632802 0.474436 -0.2622451 -0.06431032 -0.4244689 -0.40661377 0.3885532 -0.16416937 -0.19390316 0.42427865 0.48690802 -0.019314405 0.34570843 0.012183579 -0.32992536 0.4353685 -0.07963058 -0.101135775 0.43215114 0.21127917 -0.22382885 -0.3620234 0.39089328 0.47235328 0.18124847 -0.002908086 0.0019380728 -0.23281586
फक्त 0.020284636 0.30458447 -0.17801692 -0.27627662 -0.23211958 0.22708234 -0.023337819 -0.10885747 -0.36488518 -0.32100436 0.3502708 -0.1283715 -0.029576898 0.37354153 -0.13414454 -0.4062214 -0.53721035 0.0022715821 0.10934895 -0.34938702 0.37138796 0.29586145 0.16729206 -0.33625352 -0.36188167 0.29166192 -0.50555867 0.4899893 -0.1937767 -0.16095515 -0.40740758 0.12083638 0.39019737 0.07851942 0.043692816 0.1382757 0.44445595 0.2711843 -0.108328305 -0.051365003 0.506587 0.3501403 0.0537741 0.58115286 0.041544452 0.017534537 -0.44438365 0.35411683 0.08507769 -0.3321869 -0.5228126 0.14451863 -0.022984548 -0.47883993 -0.3997548 0.5109167 0.19686314 0.19374603 0.10732301 0.3083822 0.477819 -0.24463421 0.28342414 -0.09106519 0.06489717 -0.46533775 -0.12987871 0.2745177 -0.10363731 -0.38425052 -0.444671 0.511589 0.18360677 -0.32292315 -0.5360379 0.21994638 0.009534817 -0.49364197 0.07633368 0.35511032 -0.5647198 -0.34584814 0.12755239 -0.34679958 0.3731171 0.41992757 0.058074657 0.08152618 0.5493677 0.50283796 -0.21645509 0.52352846 0.31420287 0.20585804 -0.5081941 -0.2596539 -0.46949565 -0.27755034 0.09752585 -0.27549484
कधी -0.5835094 -0.26922688 0.37324744 0.32827714 -0.013644613 0.053776912 -0.20170285 0.2977956 0.14124216 -0.097753815 0.42348382 -0.041679554 -0.052778013 -0.41566572 -0.53549147 -0.19403733 -0.21010949 -0.092563756 -0.40518633 -0.48734418 -0.5612333 0.504905 -0.21074978 -0.3051545 -0.2365905 0.5299616 0.09996374 0.2997321 0.17827831 0.4757421 -0.14917184 0.44497338 -0.4826762 0.25972527 -0.069495775 0.21972995 0.16920552 0.4528909 0.043014474 -0.17861891 -0.37148938 0.41143888 -0.015964247 -0.22604664 -0.3410434 0.39189366 -0.59551734 -0.38457486 0.41020668 -0.26931894 -0.025419204 0.46345735 -0.15532972 -0.5370908 -0.15115133 0.2484752 0.021370474 0.074374 0.31839478 -0.40875724 0.30964193 0.12120618 0.40243277 -0.15712865 -0.17986332 0.3630063 0.0065358905 -0.48141012 0.5582227 -0.32215026 0.33000568 0.46098992 0.055478405 0.34408778 0.30762917 0.44372255 -0.07068517 -0.113051504 -0.30976608 -0.13606289 -0.5383716 -0.5902663 -0.47746348 0.21149285 -0.129065 0.1898715 0.33074325 -0.42671975 -0.073802285 -0.066669226 -0.2159978 -0.17030185 -0.27533668 0.138487 0.20348635 0.45390618 0.5780831 0.29692262 -0.56446207 0.41484404
काल -0.11678293 -0.3648739 -0.2775604 -0.38252518 0.11796671 -0.14523214 0.65973455 0.34099984 -0.429427 0.325149 -0.38732594 -0.19499886 0.3229977 0.0483331 0.043271836 -0.061293233 -0.5413994 -0.29051766 0.4285404 0.16288626 0.23553784 -0.076467946 -0.2991803 0.38989517 0.12814744 -0.29558444 0.45688906 -0.23673657 0.43232447 0.45731777 0.5361809 0.19383562 0.1566394 -0.14761992 -0.032937326 -0.1519662 0.53565013 -0.26485005 -0.1902305 0.13018449 -0.46981463 -0.07397442 0.4237881 -0.29212782 -0.2873634 -0.25079793 0.079594 -0.04352611 0.67494756 0.13369577 0.1918415 0.4306142 0.2531669 -0.08602988 0.3609072 -0.62933874 -0.08885532 0.19297986 0.023374818 0.3197034 -0.6019778 0.5510301 -0.21898162 -0.19375415 0.22432835 0.2233153 0.14469801 -0.2584005 0.25288814 -0.06963444 0.37016886 -0.43446654 0.5821046 -0.122570716 0.42084706 -0.111818105 -0.010360938 -0.614692 -0.5452479 -0.33274522 0.13755853 0.41745213 -0.28006446 0.038430728 -0.2771594 0.13626389 0.11265533 -0.022727216 -0.6029272 -0.09351225 -0.48915184 -0.3358579 0.072792634 0.20719194 0.3164201 -0.28836972 -0.38515565 -0.41336986 0.5170785 -0.15221833
येईल 0.1605532 0.050899245 0.16799617 -0.3829259 0.1833488 -0.028032335 0.16776752 -0.080418296 -0.058304902 -0.13990296 -0.3151014 -0.240465 0.20373325 0.13348004 -0.36025757 -0.3267211 0.118343875 0.06620878 0.3761394 -0.06403142 -0.33587125 0.081002496 -0.21249756 0.46784508 -0.038712494 0.40730906 0.17725322 0.013992171 0.14177994 -0.07772894 -0.021327138 -0.16805238 0.03380701 -0.24527593 -0.30371553 -0.02159724 0.28247064 -0.40419167 -0.34446412 0.22838244 0.17685778 0.29647428 -0.02287774 0.24119161 -0.41293463 0.1472442 0.0030574726 0.040849317 -0.3501288 -0.21032317 -0.3857906 -0.21281126 0.07762099 -0.07086959 -0.07398765 0.00029884864 -0.3237707 -0.27918044 -0.01762971 0.40473133 0.14491141 -0.13127291 0.011780844 0.29319623 -0.112088606 0.23544604 -0.29213467 -0.3506776 -0.291963 -0.12432731 0.38418832 -0.29582694 -0.17132655 0.11640962 0.29954785 0.36847383 0.023524469 -0.39503694 -0.3700033 -0.102363355 0.40608194 0.102130294 -0.15043218 -0.38683423 -0.25301525 0.1452663 0.42677057 -0.21268491 -0.43799555 -0.28618693 -0.18038842 0.12000877 0.4014723 0.37239772 0.13180047 0.20355298 0.24604592 -0.29089376 0.25925142 -0.3090432
त्याचं 0.47301373 0.043534927 -0.44800127 -0.3278887 -0.50399274 -0.4843095 0.06337378 0.25595105 -0.30461818 -0.106767185 -0.30765483 0.4936745 0.42705148 -0.34865046 0.2310692 0.4889617 0.5425528 0.29567683 0.31612176 0.38275343 -0.26243776 -0.23026185 0.01020509 -0.085215576 -0.3002821 -0.28929597 0.43998605 -0.3469063 0.55278677 0.2256661 0.36356586 -0.09037322 0.34396416 0.018360231 -0.21158776 -0.33549258 -0.057656936 -0.41371349 -0.23116304 0.10572685 0.16079012 -0.53752047 0.006191542 -0.51017237 0.39180353 -0.50795466 0.16783854 0.1435106 0.14949976 -0.25255045 -0.057747904 0.19964208 -0.3013749 0.29123202 0.11933189 -0.026305998 -0.05446883 0.15932506 -0.540259 -0.18110439 -0.22070427 -0.099324405 0.19948491 -0.117035836 -0.105391935 -0.30540872 -0.28880453 0.42284653 -0.12773119 -0.054506194 0.11327746 -0.46372145 0.0007712577 0.45708454 0.4022062 -0.26829433 0.5163322 0.33432463 -0.18438643 -0.3685157 0.031133946 0.35575444 0.41017315 0.50303674 0.28829885 -0.049314257 0.38837168 -0.39120767 -0.37227944 -0.41836676 -0.33944222 0.21619229 -0.050528146 -0.4606205 0.51709956 -0.34784707 0.07276651 -0.1485268 0.009554311 0.19343826
आली -0.10697881 0.5453894 0.36625507 0.36535457 -0.045110896 -0.15272398 0.20563245 -0.021450095 0.23222148 0.024317129 -0.107347615 -0.038044263 -0.09536034 0.017801533 -0.21647058 0.12210693 0.24716148 -0.1399913 0.44955513 0.08667233 -0.019227834 0.016526777 0.15551157 0.013443537 0.01088274 -0.19030026 -0.20862837 0.11977524 0.013260305 0.18532611 0.43498984 -0.08707056 0.2454317 0.26606554 -0.03132017 0.279548 0.063225605 -0.051161688 -0.27581292 0.3227115 0.22844452 0.50849694 -0.1610085 -0.034942944 0.13559371 0.0031445792 0.3079831 0.11577767 -0.23805414 -0.334605 0.18660195 0.303187 -0.4799225 0.055409696 0.13461539 0.15409237 0.23218107 0.18648544 -0.19941442 -0.48261777 -0.44766402 -0.028369898 0.33183852 0.54420686 0.07354975 -0.18090105 0.035392262 -0.36095917 -0.26494977 -0.18566562 0.23551658 0.11158849 0.017013147 -0.44833294 0.11778086 -0.09308762 -0.16953039 -0.034934405 0.04002373 -0.0654006 -0.15259375 -0.2713925 -0.44158307 -0.28962064 -0.2497162 -0.5250012 0.11452785 0.18655112 0.31426403 0.51257384 0.2962234 0.23690736 -0.009468146 -0.021072032 0.018207718 -0.1967552 0.47181115 -0.28209955 -0.04631737 -0.02741469
येथे -0.52344596 0.1822937 0.13856089 -0.5450434 0.32088327 -0.18321232 0.5513773 0.2761002 -0.33756718 -0.15549669 0.21754178 0.4005747 -0.29245618 -0.5474294 0.15720963 0.23737235 -0.40352866 -0.4504681 0.3558624 -0.30522582 0.20510764 -0.23019886 0.17005143 0.52475715 0.16865681 -0.26802394 0.6000854 -0.37202835 0.5922856 -0.313916 0.32915598 -0.30845276 -0.0898385 0.13685638 -0.010501092 -0.27360165 0.613997 -0.39336812 -0.17246985 0.5537064 -0.120003015 0.24133922 -0.5316639 -0.0043728426 -0.6145607 -0.55725336 -0.038707282 0.60202175 -0.20064293 0.18095647 0.47600695 0.587755 0.5835629 -0.3890514 -0.3046335 0.2113765 -0.31113565 -0.2539585 0.16295108 0.47816217 -0.3678479 -0.1870844 -0.6604232 -0.49506998 -0.099763945 -0.11356781 0.14830439 -0.50996584 0.122835375 -0.053047832 0.0367891 -0.38587403 -0.28025827 -0.5328002 0.56436324 -0.59206235 0.2302147 -0.16674969 -0.51176137 -0.5241588 0.32913014 0.37967443 -0.53205866 0.6335414 -0.5398679 0.34904483 0.22682904 -0.21881455 -0.40119377 -0.040807493 -0.013366022 -0.5338569 0.26164675 0.122401915 0.52301824 0.09895878 -0.5849131 -0.21466736 0.021016112 -0.40424737
सारखे -0.18183585 0.2915588 -0.06719003 -0.09749136 0.053578705 0.1812177 0.037220024 0.29880613 0.36442873 0.45036817 -0.12537418 0.3606245 -0.074261576 -0.0774379 0.2864774 0.33316645 -0.031751685 -0.26440296 0.44673854 0.4217322 -0.0708678 -0.16875449 -0.18739638 -0.4199631 0.58408135 -0.30382806 0.3679469 -0.12742552 -0.3323345 -0.13193548 0.08292265 0.27868915 0.13469586 0.05936238 -0.288258 0.29328078 0.48589033 -0.07598793 -0.093971215 -0.36401638 -0.095952995 -0.12336926 -0.21360746 -0.29961702 -0.4371985 0.1252709 0.48335913 0.43415305 -0.07003778 -0.3195112 0.0055749123 -0.5660654 0.20026292 -0.18448497 0.24392787 -0.21091717 -0.23374969 -0.15496336 -0.061633352 -0.019122945 0.060073134 -0.32355905 -0.10405786 0.63220894 -0.41678047 0.1039218 -0.35333142 0.038081285 0.06128694 -0.49342743 0.22306235 -0.46894684 0.015463673 -0.16734993 -0.20442626 -0.47269538 0.46110854 -0.44028223 -0.10400035 -0.22770149 0.15153755 -0.41312262 -0.10394665 0.56432706 0.018001271 0.24482304 0.039140318 -0.102368355 0.5755096 -0.23305908 -0.5472252 0.4684961 -0.28809452 -0.45920596 -0.5826937 -0.3842305 -0.4199762 -0.40074137 0.15918903 -0.5179604
विभाग -0.54849476 0.41480616 -0.4753549 -0.29085153 -0.51213944 -0.09593634 -0.1559055 -0.023844065 0.46243748 0.17365451 -0.104728684 -0.42436975 -0.32234338 -0.18846685 0.3622343 0.007604047 -0.34373066 -0.3525859 -0.115166254 0.58194226 -0.5339732 -0.47968084 0.3726682 0.006216536 0.32698873 -0.5294357 0.21170712 0.48018798 0.2228877 -0.08957239 0.14670235 -0.23807217 -0.08307548 -0.28840876 -0.107575536 -0.08786197 0.3517874 0.022858646 -0.017339393 0.18991393 0.2914788 -0.06067831 0.060459454 0.19439822 -0.4541361 -0.2507436 -0.17784502 0.5008572 -0.06042032 -0.1030618 -0.2461176 -0.34110898 0.4217164 -0.26859146 0.45821387 0.036489613 -0.4825857 -0.09167132 -0.20734492 0.120373644 -0.3952914 0.2813706 0.02780726 0.42779058 0.03390995 -0.341768 -0.32567737 -0.31030247 -0.3413647 -0.13964264 0.59324396 -0.11771053 -0.34431756 -0.46912882 0.2595259 -0.35409006 0.16722128 -0.21996851 -0.20849976 -0.0019319208 0.32837844 -0.3491333 -0.51716316 0.07903945 0.32954305 0.38397145 0.54258865 -0.58953035 0.41793668 0.107948884 -0.44407383 0.35030088 -0.39571893 -0.44233435 -0.53992814 -0.033815198 -0.07880822 -0.028466906 -0.16530672 -0.5688193
प्रत्येक 0.0879798 -0.41431305 -0.47972253 -0.02295694 -0.24855281 -0.4175121 -0.2227218 0.25422615 0.3822113 -0.4191923 -0.2819538 -0.2800319 -0.43678287 -0.46410444 0.046897795 0.131286 -0.14133391 0.23532254 0.12254775 0.38819563 -0.35224584 -0.24822156 0.027685193 0.59695965 -0.47513348 -0.1564892 0.13090096 0.020038297 -0.06759349 0.50594205 -0.4985219 0.07813506 0.053285662 -0.55066466 -0.3769077 0.26343372 -0.06645984 -0.41795123 -0.49672246 -0.13182281 -0.32077056 -0.18673407 -0.25992984 0.015042555 -0.49880248 -0.39760697 -0.20577815 0.5649766 -0.4394234 -0.18555968 0.020203114 -0.4880002 0.30360177 -0.07387286 -0.07565759 0.015496687 -0.6240563 -0.3084366 0.012362059 0.38855544 0.23118025 0.09170988 0.1194626 0.22330919 -0.23575507 -0.2614674 -0.55123425 -0.29873124 -0.2963994 0.27514866 0.52783483 -0.45024407 -0.5360173 0.25258273 0.6294056 0.27493843 0.15119578 0.30912954 -0.48010626 0.0042624073 0.4330209 -0.10677466 -0.2557671 -0.48311338 0.40870333 0.5312405 0.49466532 -0.54453033 0.26290748 -0.14983103 0.04713998 0.28057188 0.10293043 -0.13762395 -0.39575422 0.38229632 -0.34894133 -0.22879973 -0.17255647 -0.21538961
संस्थांना 0.07125112 -0.2551844 -0.4224879 0.060412575 0.11353625 -0.057692107 -0.3205464 0.15718004 -0.34595203 0.18699089 -0.41567138 -0.29725143 -0.25318897 -0.44453683 -0.4764497 -0.14241052 -0.022335542 -0.25765213 0.12107021 -0.3154333 0.14046152 -0.14255174 0.45601177 0.35320374 -0.37656105 -0.40242288 -0.20406382 0.08374628 -0.16072962 -0.15624374 -0.3498568 -0.11870581 0.20593378 0.028463515 -0.20716043 0.28395906 -0.17087331 0.5069926 -0.21816377 0.49590537 -0.29091954 0.36171728 0.26943305 -0.08736146 -0.117444016 0.09076657 0.4324448 0.05908899 -0.3697973 -0.49868444 0.35817498 0.39319718 -0.56360435 0.07155672 -0.24076097 -0.2730448 0.5510426 0.38734594 -0.087559626 0.041953806 0.32447833 0.3879122 -0.4942176 -0.30282807 -0.33002266 0.17717336 -0.44764856 0.51691735 -0.03962664 -0.3274482 0.3582823 -0.27727062 0.019637886 0.27051276 0.12062442 -0.39298582 -0.5540653 0.005357834 -0.44652423 -0.2134943 0.42760763 0.21255276 0.39716476 0.13520864 0.32037538 0.05298176 0.25914535 -0.16381377 0.4594852 -0.26112935 -0.49250072 -0.5524707 0.25465 0.36039773 0.3388277 -0.07994571 -0.061173998 -0.28286776 -0.4637041 -0.34540242
भाग -0.39922106 0.49876836 0.17670095 0.0016680876 0.053571686 0.15211268 -0.17064139 0.013286451 -0.22422533 0.12876429 -0.16494577 -0.07572722 -0.4060516 0.32157457 -0.48154476 0.11910916 -0.31388068 -0.160989 -0.1946438 -0.5204238 -0.25680003 0.08450495 0.123412766 0.08097374 0.38115004 -0.2559888 -0.35256264 0.35867983 -0.2279561 -0.08554127 -0.21407482 0.22797352 -0.13949497 0.036506582 -0.11578451 -0.4050994 -0.60535175 0.20701732 0.02665236 -0.025342317 -0.3620493 0.18069477 -0.0441616 0.4420843 -0.13375862 0.49721855 0.23687458 -0.16903137 -0.32023022 0.034929574 0.019830063 0.2914265 -0.62937146 0.4232172 0.033435866 -0.20219433 0.2445324 0.3384809 0.1707513 -0.24619105 0.17324805 -0.2760218 -0.16980849 -0.087167166 -0.2492319 -0.009975638 -0.24198899 0.29110208 0.3037995 -0.16663015 0.031037755 -0.092804596 0.38016528 0.3331936 -0.15794389 -0.48563662 -0.44434834 0.21237889 0.0060319314 -0.09675347 0.18286194 -0.4694179 0.260641 -0.19171624 0.38347933 -0.35132727 -0.070484385 0.17807697 -0.16985478 -0.019504119 -0.1846854 -0.43920627 0.043520715 -0.42463067 -0.20955744 0.33676112 0.0033814535 0.06504601 0.18830444 0.45032966
करण्यासाठी -0.058158554 0.19992831 -0.35345167 -0.26570684 0.46866104 0.04663334 -0.010470709 0.34732288 0.15555832 0.25463703 -0.28471497 -0.38897693 -0.018939966 0.20498623 -0.29527503 0.5384463 -0.46555516 -0.21118855 0.02891464 -0.5293369 -0.07773344 -0.37084705 0.068008944 -0.034270555 0.11921207 -0.41257644 0.13789916 0.32036358 -0.6099051 -0.32691416 -0.50144964 0.12105937 0.1715792 -0.26541752 -0.20652984 0.062041014 -0.5897177 0.537219 -0.2895654 0.6031953 0.09176308 0.036836054 0.4340183 0.43369842 0.10276558 0.455316 0.017188136 0.09208113 0.0032664053 -0.24554169 0.18738155 0.42062908 -0.53867793 0.20969753 -0.3155673 -0.29783183 0.103177994 0.5057434 -0.039885525 -0.3963544 0.41222438 -0.058307964 -0.31282896 -0.14312199 -0.15248685 0.28418574 -0.57975554 0.2528688 -0.38585427 -0.4082166 0.4445304 -0.3504006 -0.010380984 0.39155468 -0.27079222 -0.29472545 -0.22248493 0.21205562 0.101795234 0.25887957 0.44620898 -0.04886625 0.3547741 0.28384686 -0.38437065 -0.22661659 -0.13452232 0.15086028 0.32102403 0.16692926 -0.5866689 -0.20060308 -0.080461785 -0.14394908 -0.116536275 0.35507777 -0.23466133 -0.12554699 -0.10009677 0.29189402
म्हणून 0.41031542 -0.49349096 -0.47137693 0.49850905 0.05389558 0.016853437 -0.40228814 0.10751714 -0.35650766 0.0067556147 0.26743376 -0.16208267 0.39195734 -0.44496265 0.5271261 0.3987875 0.4485866 0.046177533 0.40588677 0.42048645 0.0846189 0.056703757 0.18493257 0.16970323 -0.21793824 -0.24175322 0.42198023 0.4469312 -0.19637096 -0.04007163 -0.0015027259 0.34113714 0.15175259 -0.008407795 0.2070571 -0.103287615 0.28796735 -0.1774381 -0.12362023 0.3327466 0.49152967 -0.15400898 -0.19615918 -0.119791694 -0.4209555 0.16760112 0.22855975 0.094422944 -0.4787409 -0.42667636 0.39137524 0.022552716 -0.3965632 0.29908195 -0.32846847 -0.116247 0.23579895 -0.057467625 -0.48134506 -0.04489603 -0.44524637 -0.04188741 -0.3148881 -0.016116116 -0.017847031 0.16927174 0.14307454 0.33410937 0.07895324 0.42407438 0.4718089 -0.088501066 0.052002504 -0.49709764 -0.18837962 0.15021902 0.3400516 0.3387573 -0.18240452 0.006082529 0.45910498 0.38962576 0.03447163 0.14643985 0.0041599055 0.23744142 -0.19082096 -0.13576934 -0.3850165 -0.39208782 0.48540762 -0.24020496 0.47849783 -0.23031582 -0.21101862 -0.13444611 -0.43881664 -0.14099398 0.18522854 0.36928272
त्यांचे 0.059089247 -0.09773301 0.16736682 0.4718004 -0.058285665 0.09746446 0.0844107 -0.044513773 -0.14342006 0.19359536 0.19892387 -0.33911654 0.15919529 -0.010916043 0.3901898 0.13592908 -0.16231963 -0.19074823 -0.47549942 0.16403592 -0.3600755 -0.15751818 -0.46751013 0.2840307 0.084335886 -0.25090164 0.53328073 0.31279796 0.110399805 0.28460273 -0.23497495 -0.22588326 0.06461527 0.42031974 0.049516454 0.12541753 0.2794052 0.24266331 -0.23780435 0.617589 -0.50722474 -0.08405911 0.08104589 -0.29597402 -0.042140916 0.12204947 -0.17144358 0.18062994 0.1605846 0.18838115 -0.061369155 -0.059456095 0.18379584 0.2528177 -0.36231735 -0.19688644 -0.16249329 0.08519436 -0.028230898 0.17613661 -0.12769014 -0.24393421 -0.034444477 -0.12479401 0.19566806 0.048460715 -0.08505883 -0.14204231 -0.1593979 0.06120422 -0.033152923 0.10105632 0.040727366 0.08124098 -0.22461943 -0.44479367 -0.017231185 0.1567216 -0.16041653 -0.3821884 0.36201647 0.42147475 -0.43729547 0.37428123 -0.5178718 -0.37654048 0.27109447 0.108055055 0.28226763 0.04844589 0.3646252 0.22845852 -0.54512674 -0.1197019 0.3364484 0.4879376 0.13195738 0.13643913 0.027932022 0.07415633
भूषण -0.06910839 -0.19852883 -0.39706078 0.059595987 -0.29423618 -0.31862086 -0.28562462 -0.12863275 0.45087054 0.114448614 -0.48678112 -0.23809028 0.03534946 -0.5717432 0.119729385 -0.114119105 0.35369465 -0.41711584 -0.4532076 0.40796196 0.627834 0.4426027 0.43273917 0.087762475 0.1560967 -0.22049494 0.27610704 0.019685337 0.13305704 -0.44308686 0.18496992 -0.30778685 -0.0728882 -0.15181975 -0.16778016 -0.14961106 0.05106002 0.08877415 -0.26028928 0.40279928 0.4414049 -0.4701927 -0.35738873 -0.06383636 0.09347134 -0.21896937 0.48380312 -0.34753403 0.07308359 0.46248472 0.29417935 -0.19783968 0.3652091 0.34581 -0.3397065 -0.17426112 -0.5346464 -0.16277353 -0.481132 -0.028959062 0.5591913 -0.3370894 -0.15607576 -0.18763955 -0.40737003 -0.58804566 -0.6347287 -0.22428721 -0.012342422 0.23749897 0.20880401 0.30736092 -0.20991239 -0.5427055 0.09850523 -0.16961524 -0.020656686 -0.1527106 -0.26109773 0.1485388 0.045388956 -0.03014922 -0.2663673 -0.34268117 -0.292754 0.35811973 -0.45649546 0.41893393 -0.05220238 0.10109185 0.19986726 -0.36078268 -0.31642804 -0.03208615 0.56586397 -0.5691832 -0.5113812 -0.45867124 -0.27549633 -0.43755037
टीका -0.065046385 0.069171935 -0.22936063 -0.20237237 -0.034307055 -0.1235036 0.2816612 -0.2952277 -0.18574545 0.46622035 -0.22338986 -0.245928 0.06947417 0.13515684 0.039367728 0.40672588 0.48086292 -0.10946795 -0.46993622 0.42107716 -0.12309347 0.50362194 0.5058402 0.037507087 -0.2621147 -0.13647516 0.16148321 0.5351086 -0.2655682 -0.24478263 0.56794935 -0.45215726 0.20282973 -0.36074218 -0.15992032 -0.45875236 0.38278946 -0.17245238 0.16334109 0.04504322 0.6184166 -0.46385556 -0.13929974 -0.10328004 0.3244605 -0.03831585 0.22914699 -0.20731245 -0.18000111 0.3326847 0.18852583 -0.300845 0.56775826 0.20199484 0.15693949 -0.35630497 -0.40662584 -0.26427308 -0.544988 0.14994285 -0.00057844643 -0.0017504534 -0.18658409 -0.2702074 -0.36307952 -0.23583686 -0.3132782 -0.4752921 -0.32204148 -0.23977356 0.58321255 0.3529163 0.03167464 -0.54237694 0.2642392 -0.43042195 -0.11831469 0.171605 -0.053524226 -0.35853842 -0.077741854 -0.24295254 -0.18466464 -0.25733805 -0.51388407 0.06734539 -0.21755442 0.1699996 0.12733923 0.07731844 -0.08300109 -0.29678595 -0.5522706 0.1874578 0.001843345 -0.25625527 -0.08728273 -0.37456372 -0.011162323 -0.3167172
गेले 0.14217381 0.3036622 -0.14652167 0.3975911 -0.39166433 -0.16595452 0.4075142 -0.10268777 -0.25632975 -0.41287464 -0.05264724 0.37688684 0.43101656 -0.19961062 -0.12838005 -0.23719071 0.4536401 -0.25068516 -0.14751434 0.24550954 -0.404333 0.48503274 0.24987161 -0.41176456 -0.32102707 -0.28538567 -0.48874182 0.38954312 -0.40818712 0.041404422 0.2159778 -0.067187086 0.29152903 0.16201495 0.15487888 0.089390054 -0.41375163 -0.3438639 -0.33693194 0.24909084 -0.32101336 -0.3318536 0.029660888 -0.14419219 -0.3692991 -0.37395817 0.3169599 -0.35812277 -0.3763915 0.27496997 -0.43880385 -0.36954415 0.19935374 0.3391449 0.30621213 -0.1687255 0.35216692 0.15025797 -0.47964153 0.4535661 -0.12035723 -0.16012453 -0.19904423 -0.23053946 -0.34781912 0.37460127 -0.18446824 0.28226095 -0.3361221 0.1804017 0.40720493 -0.09518509 -0.17369057 -0.13756281 0.3067662 0.00080945034 0.34322947 -0.030324375 -0.3608595 0.015696745 0.46057194 -0.051457494 0.35130283 -0.3210798 0.11274124 0.15019765 -0.4321744 -0.14743808 0.06981274 0.17773199 -0.16199428 -0.106489904 -0.38626865 -0.0059480914 -0.04528273 -0.06801558 -0.23900637 0.24465351 0.2925949 -0.23178603
त्यातला -0.29659447 -0.17944348 -0.4144556 -0.28628102 -0.37318933 -0.114207126 0.19999301 -0.20255281 -0.16433273 0.3826174 -0.47331625 -0.2696693 -0.06366157 -0.057681102 0.39650375 0.29995567 0.12997696 -0.4557249 -0.34688103 0.08804203 0.28449836 -0.15372084 0.38793972 0.34375495 0.20394555 -0.30593643 -0.080787905 0.37959692 0.30330837 0.40646344 0.16871278 -0.38586417 -0.42358762 -0.43866658 0.038418096 -0.3900747 0.36560646 0.3739887 0.07716388 0.31179094 0.006654972 -0.031096075 0.20633459 -0.0648472 -0.22619091 -0.2884948 -0.13757163 0.46315375 0.073015474 0.52164257 -0.29615134 -0.03945992 0.2631395 0.47092512 0.029431982 0.3495213 -0.36778185 0.22276598 -0.3856761 0.23807591 -0.12441159 -0.2591736 0.051268738 0.18302314 0.18861884 0.17823617 -0.29732487 0.12363321 -0.3387014 -0.0009502906 0.3212609 0.20577785 -0.24208038 -0.2653074 0.3844644 -0.27760863 0.20798168 0.004087115 -0.09362582 0.08825544 0.33406454 -0.04476496 -0.29604402 0.43422714 -0.16005471 -0.295482 0.33167744 -0.38613462 0.36152214 0.3334265 -0.30805546 -0.51674813 -0.38645068 -0.24135421 -0.43045226 -0.11746885 0.085306115 0.029786024 -0.34791732 -0.4666453
’ 0.17863183 0.18139128 -0.26847416 -0.4172477 0.06568737 -0.0061477358 -0.1102311 -0.29605907 0.011935534 -0.40163457 -0.058951687 0.40255067 0.16523081 -0.02849795 0.37537903 0.019192379 0.36814365 -0.3524654 -0.32048535 0.3908474 0.38559353 0.5095795 0.20184812 0.07223347 -0.39694935 -0.37967002 0.33433795 -0.31253037 0.3632829 0.17695257 -0.37773597 -0.056161318 -0.024038533 -0.46479133 0.2289091 -0.23827244 -0.29478967 -0.3531826 0.23373532 0.10762375 -0.43934494 -0.19041373 -0.3857404 0.024485096 0.03036267 -0.17825572 0.44505113 -0.34407264 0.06986522 0.3236247 -0.13028699 -0.13696252 0.4371666 0.18366407 -0.0072453152 -0.07979958 -0.36870146 0.16263862 -0.4040504 0.48137656 0.26332957 -0.41941902 -0.04804438 0.1152605 -0.221631 0.45570573 -0.3982238 -0.36119172 -0.3867465 0.39521375 0.15268445 0.021380711 -0.47560862 0.120056 0.123299465 -0.06716784 0.18111092 0.4188978 -0.250614 -0.18497266 0.42380396 -0.42805877 -0.08785827 0.42136067 -0.298664 -0.5195642 0.3094553 -0.27811185 -0.1981792 -0.3251672 0.272702 -0.08010494 -0.4858568 -0.26775464 0.20601946 -0.24317732 -0.08033546 0.14540176 -0.05269464 0.31819838
म्हटले -0.52861375 0.08733849 0.26118734 0.09881675 -0.41020083 0.22159061 0.25635517 0.023664411 -0.069815144 -0.2520632 -0.17708935 -0.01681781 -0.3807037 0.0072439755 0.25299233 0.045953345 0.1975519 -0.108987436 -0.29377875 -0.38225743 -0.28683287 0.2727108 -0.08322381 0.07515551 0.14006764 0.42082453 -0.24218814 0.5150729 -0.18415447 0.50549334 0.13692537 0.4023887 -0.19305016 0.020102052 0.25237763 0.060876362 -0.21581167 0.42829725 0.10755179 -0.2424673 -0.48022336 0.3463361 0.5322759 -0.17258589 0.22176984 0.25250155 -0.16242418 -0.15020302 0.42567348 -0.08391171 -0.19413869 0.22046563 -0.24643308 0.07848405 -0.049062446 -0.21820566 0.3210265 0.27802518 0.19063981 -0.2864793 0.03875819 -0.03183051 0.38791698 0.21383718 -0.11180925 0.32693684 0.028963849 -0.069372594 0.53601307 -0.20882888 -0.0073105805 0.44780988 0.30719396 0.1578601 0.2063648 0.39834544 -0.03509207 -0.0837724 -0.033579353 0.45726645 -0.18624043 0.26727995 -0.29471096 -0.09608042 -0.26464093 -0.025847236 0.46213168 -0.057853352 0.0815299 0.5090775 -0.21311139 -0.15468377 -0.5641026 -0.27317876 -0.3998162 0.08887963 0.048360404 0.2046536 -0.02192935 0.14438248
अर्थ -0.14191477 -0.11962622 -0.0151395425 0.18428646 0.22513728 0.15787616 -0.035068452 -0.016598048 -0.013130262 -0.45631382 0.19433872 0.38196227 -0.13269939 -0.13213658 -0.2994364 -0.15273553 0.07179257 -0.06601066 -0.325954 -0.18334894 0.15227832 0.536833 0.2554523 0.029684747 0.2863478 0.11824476 0.1912171 0.41219333 -0.031872213 -0.046607714 0.26737076 0.19700326 -0.2195386 -0.26323187 0.08627655 0.16015099 0.1397777 -0.15409465 -0.31590518 0.06193777 0.38288125 0.04667855 0.1785369 -0.110915266 -0.01356984 0.40049925 0.07306595 -0.17568071 0.16632727 0.1518972 0.10236569 -0.033107884 -0.5179449 0.16334988 0.27638718 -0.12861829 -0.24501309 0.046811584 -0.097539894 0.06923355 -0.169777 -0.014658583 -0.12514694 -0.004055015 0.06304957 -0.1309089 0.079364635 0.29193458 0.44608158 -0.22183098 0.08651138 0.31936374 0.02110277 -0.22083367 -0.12878272 -0.06988609 -0.07232916 0.0031222005 0.06265743 0.271174 -0.27687728 -0.24937035 -0.42135656 -0.038900066 0.08153721 -0.25808594 -0.4055456 0.02143327 -0.07469696 0.16379556 0.3759268 -0.20522101 0.03734372 -0.06641904 -0.26595667 -0.2620165 0.035707016 0.052191056 0.18075994 0.24525608
आले 0.057023454 -0.009618992 -0.010538086 -0.2267427 -0.03844941 0.36689582 -0.2939767 0.09984339 -0.09922746 0.35017425 -0.08111502 0.1977271 0.18417168 -0.109751195 -0.26489764 -0.41811943 0.18020332 0.012055274 -0.04589604 -0.045148257 0.12951861 0.44302464 -0.08471567 -0.3195525 -0.024638558 0.3089014 -0.4683334 -0.03616744 -0.09754638 -0.08801857 0.028707366 0.019725615 -0.28517234 -0.015805999 0.2933252 0.15654181 0.3469101 -0.11129678 0.071486935 -0.34388247 -0.16931137 -0.15338539 0.116330594 -0.06332917 0.08847163 0.32632264 0.028303994 0.0025575254 0.22873461 0.17406788 -0.062623166 -0.20760778 -0.27439088 0.22141038 0.10836632 -0.19745909 -0.23762244 -0.13108824 -0.23771207 0.23393871 -0.09250021 0.061441593 -0.0044360473 0.2724287 0.037811514 0.027292779 0.062561415 0.5777481 0.40499333 0.08884195 -0.29879057 -0.13495594 0.007729411 -0.047515605 0.023034882 -0.30771548 -0.5338777 0.117563404 0.099340536 -0.123593144 -0.11093697 -0.080009885 -0.19945644 0.37215424 -0.11350585 -0.4321761 -0.402795 0.33626172 0.27806655 -0.10732157 -0.046983074 0.24169073 0.07092942 -0.35019967 -0.36011416 0.23688322 -0.06812061 -0.028887657 -0.20032212 0.08407798
आता -0.017357185 0.24534471 -0.062440887 -0.48999122 -0.45638046 0.0748278 0.455589 -0.08744386 -0.05996564 -0.17856094 0.23636311 -0.065486915 0.21183008 0.12615034 -0.08362665 -0.08479632 0.040066257 -0.061432745 -0.042913545 -0.08843948 -0.39506835 0.08189184 0.20889848 0.016298097 -0.16116576 0.47692618 -0.29403087 0.2668517 -0.16074255 0.16088054 0.17905147 -0.13097839 0.37133208 0.2037613 0.23509927 0.11116184 -0.25387272 -0.02101356 0.20474415 0.100482345 0.25802693 0.43059 0.2732244 -0.02243302 -0.1381142 0.068887286 -0.31633833 -0.4799012 0.09189894 0.15859619 -0.33631083 -0.36366528 -0.27677926 -0.22904183 0.29069456 0.110401 0.4256919 -0.09425802 -0.17236914 -0.0955026 0.21790786 -0.23547746 -0.17738438 -0.36701146 -0.21077794 0.08533208 0.039978705 -0.32413542 -0.38678733 0.19930746 -0.07760862 0.16667746 0.33370253 0.37425977 -0.39801827 0.19845837 0.098728165 0.0055657043 -0.30791178 0.46488282 0.087607086 -0.018054482 -0.026636776 -0.49842837 -0.20173481 0.09653311 -0.016930947 -0.44171956 0.3129826 0.31895447 -0.19178142 0.39241934 -0.055147137 -0.016024211 0.35297737 -0.07049379 -0.28894252 0.21311438 0.14348824 0.12711498
अत्यंत 0.023734994 -0.3672936 -0.17534654 0.012049493 0.009392438 -0.1376218 -0.4024609 0.32153115 0.04080134 0.4077626 0.11115584 -0.56307757 -0.2921438 -0.58356565 -0.040125255 -0.40272304 0.29687196 -0.119749755 -0.2016213 -0.0020052649 -0.4699258 0.1418248 0.44729057 -0.387754 -0.376996 0.0016945202 0.28624856 -0.05843811 -0.14858599 -0.04392997 -0.35018405 -0.15956497 -0.09218176 -0.32396755 -0.2685936 0.013657343 -0.1672791 0.31405082 -0.11544261 0.0009989139 0.4056181 0.20012838 0.4866729 -0.24363373 -0.35159147 -0.07554375 -0.3861759 -0.170122 -0.093765765 0.2710235 0.529561 -0.10966854 0.22428776 -0.3270674 -0.30323 0.09175933 -0.42239085 -0.24733439 -0.10641272 0.053938337 -0.36616945 -0.0132367695 -0.22261938 0.03899815 -0.10658807 -0.08346198 -0.35227665 -0.25690335 -0.10802989 0.34645247 0.4704489 0.1805886 -0.2928801 0.44218007 0.11715302 -0.59117377 0.009772775 0.35059196 -0.3019174 0.656441 -0.36490682 0.17538942 -0.3361522 -0.44612914 0.22675873 -0.48527852 0.46612465 -0.2111865 -0.18888065 0.054828934 -0.4767634 0.141094 -0.15498833 0.30350578 0.45106325 -0.15025485 -0.3813835 -0.3443214 0.49644735 0.2827699
